elements: [Cu]
E0: [0]
deltaSplineBins: 0.001
embeddings:
  0: {ndensity: 2, FS_parameters: [1, 1, 1, 0.5], npoti: FinnisSinclairShiftedScaled, rho_core_cutoff: 100000, drho_core_cutoff: 250}
bonds:
  [0, 0]: {nradmax: 5, lmax: 3, nradbasemax: 15, radbasename: SBessel, radparameters: [2], radcoefficients: [[[1.2402523116943063, -0.27577965136199267, 0.028892564935269621, 0.028156184340806821, -0.010315082878198201, 0.12307630815886153, -0.17668479707039064, 0.14795215241857299, -0.080713380491492098, 0.05011127835907337, 0.0061424743413085545, -0.040015137444303378, 0.04195808018229169, -0.021896952589884777, 0.0051341874591093939], [1.1535219590333137, -0.28182241449461964, 0.058840857510086143, 0.074191804681098067, -0.049714398518540315, 0.081435126211077791, -0.10703618613807259, 0.1007005930872841, -0.096597978890486116, 0.069996079539487707, -0.051694938278820712, 0.037746442067845255, -0.024540448673267826, 0.0089496341970531097, -0.001057126226424886], [0.81562435936863609, -0.17919207075327023, 0.0069002695373560361, -0.029323289046388784, 0.12059262841809248, 0.0036905429188132072, -0.06587627856425296, 0.1222616264035489, -0.086834054320108808, 0.05565372869108378, -0.046493389819839311, 0.043101103642516028, -0.036579440345459638, 0.015312325230658036, -0.0041554925402625996], [0.97923954836659988, -0.071575709488423483, 0.035139625546800286, 0.077004757467634216, -0.07665475884508989, -0.17339149827009331, 0.045799294702760986, 0.27478649503539243, 0.032446202637859745, 0.029051826546673813, 0.17627520191856866, -0.036536515058856259, 0.056645159358616005, 0.17816870719686856, -0.13726660360481069]], [[0.1007244504202057, 0.93374377391697305, -0.18826413199288436, 0.10027002375361636, -0.035123185358252811, 0.047161802087461062, 0.012661983524876647, -0.12667920531449087, 0.22307304142796117, -0.20758083572028935, 0.1897769892049945, -0.14677224137357714, 0.092048411499719776, -0.036169211170397203, 0.0020220668034111682], [-0.21191988751171126, 0.83873461086239143, -0.17345161890917962, 0.20188203942549052, 0.015329484788806131, -0.038035650985468142, 0.14266988737095501, -0.1606802964967031, 0.16023870653083841, -0.11997083863659798, 0.059631345777244528, -0.017679351522673088, 0.01575416672116316, -0.0073903301880013528, -0.00018759309234378367], [-0.25122556177686428, 0.88026833849803787, -0.21568271032257633, 0.040156954740803961, 0.059411325688377446, 0.0015952607386307564, 0.10762828758487901, -0.085613557742435675, 0.12437926893397393, -0.10559319172414795, 0.10375147410143706, -0.081897513325561305, 0.062613472392803918, -0.036696251180426083, 0.024566048925150588], [0.0036375005296281075, 0.96634090113798765, -0.05243557200245403, 0.063389801808881721, -0.057951751903044808, -0.11581762314215531, 0.24526670833117115, 0.23531548559636739, 0.025825213144633125, 0.19637682003626, 0.23373025676131645, -0.019692017340805008, 0.12438090882356641, 0.18202532830998014, -0.091600532476449031]], [[0.3434273924265035, -0.23244281052277535, 0.92855732652008283, -0.26225479410905006, 0.0059715718748875506, 0.22272947980311489, -0.27669055096266432, 0.25910779950332374, -0.18537611693654954, 0.13791047946071364, -0.05448603933427372, 0.027143962207888183, -0.013253908505442582, 0.017522384896062476, -0.0075667162465784359], [0.16710200633401492, -0.25439888830837831, 0.73544526940145594, -0.061420808596325586, 0.15486201686478115, 0.031785636692048619, -0.1134016333837788, 0.13051957308401091, -0.089471660592470359, 0.069599282145800412, -0.051480574100529405, 0.033772405941612314, -0.0033450627198403915, -0.0039508989567426109, 0.0016045046246450821], [0.033477438777911706, -0.091609149310045976, 0.77822147728763491, -0.29127920402335444, 0.16435436362352096, 0.11139038548453846, -0.12316544113646063, 0.15914281157016558, -0.10218449964229584, 0.085480261027821774, 0.019361866053582123, -0.059179152697497635, 0.073896457423759332, -0.044863345514915449, 0.026992530135628214], [0.087484696052227362, 0.028018633183842855, 0.91230064307899161, -0.10708088859079903, 0.044530009144165564, 0.35319519478196931, 0.34012397933388183, -0.1050674964379745, -0.059309883573535817, 0.2240844942319343, -0.093611001675190292, 0.063172928879925164, 0.10943921765772631, -0.22724338461004764, 0.14971615992963569]], [[0.033440656686568579, -0.0017728252890365733, -0.28284852421617929, 0.78894884476698746, -0.098468316691682475, 0.037701269593946096, 0.071101802585973053, -0.12709653415846653, 0.10446652906694109, -0.055773646970204149, 0.073973883678263061, -0.042789927071832601, 0.019530090773724029, -0.027422059674787121, 0.017787534966327605], [0.034216927090470195, 0.051405406375640117, -0.055987650635467963, 0.87580869958604257, -0.10343796216862422, 0.032218281759735831, -0.059510710184565371, -0.072340698685730481, 0.12077316255922527, -0.084211742931546457, 0.069273723505826709, -0.04658970381280754, 0.031461081359155194, -0.017160047351927884, 0.0075768491980922545], [0.032005420900119944, 0.051892552198568108, -0.026823395289434927, 0.82100903871850228, -0.22280489531203876, 0.039431493828332401, 0.064968350689175919, -0.086885924865840305, 0.067390113509987179, 7.9613814064735691e-05, 0.035139595380345376, -0.003276338040334188, -0.0079261677648856735, 0.016359886594136851, -0.016007067811388619], [0.052732305193459741, 0.039008227718728729, -0.03474959390653734, 0.95555330393320181, 0.050256365383754963, 0.25672042442207993, 0.19300072532090393, -0.067392075748529831, -0.029060874897737635, -0.1123177889643555, -0.1638065125095392, 0.010029740579754266, 0.035287620012625448, -0.24185177623457446, 0.053039458803606998]], [[-0.0062435191236380264, -0.0064221115012560205, 0.14380937876702343, 0.0073014192402221442, 0.76442625936320441, -0.19781450383598767, -0.048432055606082818, 0.028135990773157833, -0.063864628040365357, 0.01008985346171014, -0.025926499927371959, 0.062918585415891778, -0.037547627709500368, -0.12395188177796565, 0.059941041266707622], [-0.010172317023309006, 0.022797993116813364, 0.0046236994440394192, 0.060824409285100502, 0.99236718317607508, -0.36650526198368538, -0.17063371051082021, 0.21144462665909489, -0.054416868235169766, 0.0014878580556739413, 0.083484270789709034, -0.11048198696818909, 0.12172804126707683, -0.071636258649155224, 0.027932779939199688], [-0.034664415980733221, 0.02134274132890367, -0.0041508124681935666, -0.0054539130501150088, 0.99977633204799998, -0.1541960543192506, -0.074095009654573427, 0.14079614421879577, 0.037585372851715711, -0.050076799348851508, 0.052818985515812288, -0.011546324317904623, -0.11308574128578001, 0.066867832168628988, -0.10334150820736243], [-0.0048672708473692736, 0.0033143837894255932, -0.052014691517537424, 0.03813997170977395, 0.91876092569483303, -0.3468524246873822, 0.10974578172146697, 0.30432900335523011, -0.17744436533410343, -0.078152594832541861, -0.031733278112319213, -0.079189919660696856, 0.06155583803247771, -0.064813281571776696, -0.058253121088631607]]], prehc: 0, lambdahc: 0, rcut: 7, dcut: 0, rcut_in: 0, dcut_in: 0, inner_cutoff_type: distance}
functions:
  0:
    - {mu0: 0, rank: 1, ndensity: 2, num_ms_combs: 1, mus: [0], ns: [1], ls: [0], ms_combs: [0], ctildes: [-0.62822829987356821, -0.39754767759936266]}
    - {mu0: 0, rank: 1, ndensity: 2, num_ms_combs: 1, mus: [0], ns: [2], ls: [0], ms_combs: [0], ctildes: [-0.55568629021793947, -0.23355442584103078]}
    - {mu0: 0, rank: 1, ndensity: 2, num_ms_combs: 1, mus: [0], ns: [3], ls: [0], ms_combs: [0], ctildes: [0.38370577856009541, 0.058784424222147066]}
    - {mu0: 0, rank: 1, ndensity: 2, num_ms_combs: 1, mus: [0], ns: [4], ls: [0], ms_combs: [0], ctildes: [-0.36581423274913133, -0.11337534358636907]}
    - {mu0: 0, rank: 1, ndensity: 2, num_ms_combs: 1, mus: [0], ns: [5], ls: [0], ms_combs: [0], ctildes: [-0.26573247505629227, 0.01960527008600858]}
    - {mu0: 0, rank: 1, ndensity: 2, num_ms_combs: 1, mus: [0], ns: [6], ls: [0], ms_combs: [0], ctildes: [0.42201360815379496, 0.032173351904442045]}
    - {mu0: 0, rank: 1, ndensity: 2, num_ms_combs: 1, mus: [0], ns: [7], ls: [0], ms_combs: [0], ctildes: [-0.36049312752429047, -0.061905965087210808]}
    - {mu0: 0, rank: 1, ndensity: 2, num_ms_combs: 1, mus: [0], ns: [8], ls: [0], ms_combs: [0], ctildes: [0.15222765179089462, 0.087763023899764883]}
    - {mu0: 0, rank: 1, ndensity: 2, num_ms_combs: 1, mus: [0], ns: [9], ls: [0], ms_combs: [0], ctildes: [0.018965177374858005, -0.10314643562050664]}
    - {mu0: 0, rank: 1, ndensity: 2, num_ms_combs: 1, mus: [0], ns: [10], ls: [0], ms_combs: [0], ctildes: [-0.13779922130987904, 0.066195363303287805]}
    - {mu0: 0, rank: 1, ndensity: 2, num_ms_combs: 1, mus: [0], ns: [11], ls: [0], ms_combs: [0], ctildes: [0.11154780083625851, -0.065322584404138281]}
    - {mu0: 0, rank: 1, ndensity: 2, num_ms_combs: 1, mus: [0], ns: [12], ls: [0], ms_combs: [0], ctildes: [-0.078483575415825763, 0.052870572328436831]}
    - {mu0: 0, rank: 1, ndensity: 2, num_ms_combs: 1, mus: [0], ns: [13], ls: [0], ms_combs: [0], ctildes: [0.036592025501001102, -0.032571849545882638]}
    - {mu0: 0, rank: 1, ndensity: 2, num_ms_combs: 1, mus: [0], ns: [14], ls: [0], ms_combs: [0], ctildes: [-0.015754903512742342, -0.00027933980678262099]}
    - {mu0: 0, rank: 1, ndensity: 2, num_ms_combs: 1, mus: [0], ns: [15], ls: [0], ms_combs: [0], ctildes: [0.0008295134751397943, 0.0033380418908023832]}
    - {mu0: 0, rank: 2, ndensity: 2, num_ms_combs: 1, mus: [0, 0], ns: [1, 1], ls: [0, 0], ms_combs: [0, 0], ctildes: [0.095545178276194978, 0.11408616693193242]}
    - {mu0: 0, rank: 2, ndensity: 2, num_ms_combs: 2, mus: [0, 0], ns: [1, 1], ls: [1, 1], ms_combs: [0, 0, 1, -1], ctildes: [0.18783406960033586, -0.071710252948117295, -0.3756681392006716, 0.14342050589623456]}
    - {mu0: 0, rank: 2, ndensity: 2, num_ms_combs: 3, mus: [0, 0], ns: [1, 1], ls: [2, 2], ms_combs: [0, 0, 1, -1, 2, -2], ctildes: [-0.0013063476920721175, -0.02698918117577094, 0.0026126953841442355, 0.053978362351541888, -0.0026126953841442359, -0.053978362351541902]}
    - {mu0: 0, rank: 2, ndensity: 2, num_ms_combs: 4, mus: [0, 0], ns: [1, 1], ls: [3, 3], ms_combs: [0, 0, 1, -1, 2, -2, 3, -3], ctildes: [0.027500082973137215, -0.029280078997128881, -0.055000165946274431, 0.058560157994257761, 0.055000165946274424, -0.058560157994257754, -0.055000165946274424, 0.058560157994257754]}
    - {mu0: 0, rank: 2, ndensity: 2, num_ms_combs: 1, mus: [0, 0], ns: [1, 2], ls: [0, 0], ms_combs: [0, 0], ctildes: [-0.17618608686532414, -0.0045163873228832559]}
    - {mu0: 0, rank: 2, ndensity: 2, num_ms_combs: 2, mus: [0, 0], ns: [1, 2], ls: [1, 1], ms_combs: [0, 0, 1, -1], ctildes: [-0.096440017532788802, -0.062532995264318172, 0.19288003506557755, 0.12506599052863634]}
    - {mu0: 0, rank: 2, ndensity: 2, num_ms_combs: 3, mus: [0, 0], ns: [1, 2], ls: [2, 2], ms_combs: [0, 0, 1, -1, 2, -2], ctildes: [-0.054669010634106702, -0.099745417984923174, 0.10933802126821342, 0.19949083596984638, -0.10933802126821345, -0.1994908359698464]}
    - {mu0: 0, rank: 2, ndensity: 2, num_ms_combs: 4, mus: [0, 0], ns: [1, 2], ls: [3, 3], ms_combs: [0, 0, 1, -1, 2, -2, 3, -3], ctildes: [-0.043542801554164866, 0.037892294963061311, 0.087085603108329732, -0.075784589926122622, -0.087085603108329718, 0.075784589926122622, 0.087085603108329718, -0.075784589926122622]}
    - {mu0: 0, rank: 2, ndensity: 2, num_ms_combs: 1, mus: [0, 0], ns: [1, 3], ls: [0, 0], ms_combs: [0, 0], ctildes: [0.714765722542264, 0.32912792183754236]}
    - {mu0: 0, rank: 2, ndensity: 2, num_ms_combs: 2, mus: [0, 0], ns: [1, 3], ls: [1, 1], ms_combs: [0, 0, 1, -1], ctildes: [-0.1240807966378752, -0.098486528388250436, 0.24816159327575035, 0.19697305677650084]}
    - {mu0: 0, rank: 2, ndensity: 2, num_ms_combs: 3, mus: [0, 0], ns: [1, 3], ls: [2, 2], ms_combs: [0, 0, 1, -1, 2, -2], ctildes: [0.11910156064171139, -0.02123984586031168, -0.2382031212834228, 0.042479691720623367, 0.23820312128342286, -0.042479691720623373]}
    - {mu0: 0, rank: 2, ndensity: 2, num_ms_combs: 4, mus: [0, 0], ns: [1, 3], ls: [3, 3], ms_combs: [0, 0, 1, -1, 2, -2, 3, -3], ctildes: [0.03320045388436213, -0.042477506751292103, -0.06640090776872426, 0.084955013502584206, 0.066400907768724246, -0.084955013502584192, -0.066400907768724246, 0.084955013502584192]}
    - {mu0: 0, rank: 2, ndensity: 2, num_ms_combs: 1, mus: [0, 0], ns: [1, 4], ls: [0, 0], ms_combs: [0, 0], ctildes: [-0.21684501272292517, 0.14384142418898296]}
    - {mu0: 0, rank: 2, ndensity: 2, num_ms_combs: 2, mus: [0, 0], ns: [1, 4], ls: [1, 1], ms_combs: [0, 0, 1, -1], ctildes: [0.088684151692891178, 0.093134988117283879, -0.17736830338578233, -0.18626997623456773]}
    - {mu0: 0, rank: 2, ndensity: 2, num_ms_combs: 3, mus: [0, 0], ns: [1, 4], ls: [2, 2], ms_combs: [0, 0, 1, -1, 2, -2], ctildes: [-0.10582361718701207, 0.00047721947117051675, 0.21164723437402416, -0.0009544389423410336, -0.21164723437402419, 0.00095443894234103382]}
    - {mu0: 0, rank: 2, ndensity: 2, num_ms_combs: 4, mus: [0, 0], ns: [1, 4], ls: [3, 3], ms_combs: [0, 0, 1, -1, 2, -2, 3, -3], ctildes: [-0.019097847436743587, 0.014137717851947902, 0.038195694873487174, -0.028275435703895804, -0.038195694873487167, 0.028275435703895801, 0.038195694873487167, -0.028275435703895801]}
    - {mu0: 0, rank: 2, ndensity: 2, num_ms_combs: 1, mus: [0, 0], ns: [1, 5], ls: [0, 0], ms_combs: [0, 0], ctildes: [0.030420031190650166, 0.051375971425619768]}
    - {mu0: 0, rank: 2, ndensity: 2, num_ms_combs: 2, mus: [0, 0], ns: [1, 5], ls: [1, 1], ms_combs: [0, 0, 1, -1], ctildes: [0.05294526736591075, 0.040811461560172409, -0.10589053473182149, -0.081622923120344804]}
    - {mu0: 0, rank: 2, ndensity: 2, num_ms_combs: 3, mus: [0, 0], ns: [1, 5], ls: [2, 2], ms_combs: [0, 0, 1, -1, 2, -2], ctildes: [-0.029401718616985199, 0.027946294369368078, 0.058803437233970406, -0.055892588738736163, -0.058803437233970419, 0.055892588738736176]}
    - {mu0: 0, rank: 2, ndensity: 2, num_ms_combs: 4, mus: [0, 0], ns: [1, 5], ls: [3, 3], ms_combs: [0, 0, 1, -1, 2, -2, 3, -3], ctildes: [0.0054041509894193927, -0.015736469729771697, -0.010808301978838785, 0.031472939459543395, 0.010808301978838784, -0.031472939459543388, -0.010808301978838784, 0.031472939459543388]}
    - {mu0: 0, rank: 2, ndensity: 2, num_ms_combs: 1, mus: [0, 0], ns: [2, 2], ls: [0, 0], ms_combs: [0, 0], ctildes: [0.086219242275550473, 0.088164664394708492]}
    - {mu0: 0, rank: 2, ndensity: 2, num_ms_combs: 2, mus: [0, 0], ns: [2, 2], ls: [1, 1], ms_combs: [0, 0, 1, -1], ctildes: [-0.084903727991993319, 0.037615014403548204, 0.16980745598398661, -0.075230028807096394]}
    - {mu0: 0, rank: 2, ndensity: 2, num_ms_combs: 3, mus: [0, 0], ns: [2, 2], ls: [2, 2], ms_combs: [0, 0, 1, -1, 2, -2], ctildes: [0.044312014209853194, -0.10831054430887477, -0.088624028419706402, 0.21662108861774956, 0.08862402841970643, -0.21662108861774962]}
    - {mu0: 0, rank: 2, ndensity: 2, num_ms_combs: 4, mus: [0, 0], ns: [2, 2], ls: [3, 3], ms_combs: [0, 0, 1, -1, 2, -2, 3, -3], ctildes: [0.016330365383060381, -0.010107675758591051, -0.032660730766120763, 0.020215351517182102, 0.032660730766120756, -0.020215351517182099, -0.032660730766120756, 0.020215351517182099]}
    - {mu0: 0, rank: 2, ndensity: 2, num_ms_combs: 1, mus: [0, 0], ns: [2, 3], ls: [0, 0], ms_combs: [0, 0], ctildes: [0.40883203145639263, 0.23830243825395681]}
    - {mu0: 0, rank: 2, ndensity: 2, num_ms_combs: 2, mus: [0, 0], ns: [2, 3], ls: [1, 1], ms_combs: [0, 0, 1, -1], ctildes: [-0.063273744566332668, -0.020855734700201033, 0.12654748913266531, 0.04171146940040206]}
    - {mu0: 0, rank: 2, ndensity: 2, num_ms_combs: 3, mus: [0, 0], ns: [2, 3], ls: [2, 2], ms_combs: [0, 0, 1, -1, 2, -2], ctildes: [-0.0059052565992281517, -0.057625365208756843, 0.011810513198456305, 0.1152507304175137, -0.011810513198456307, -0.11525073041751373]}
    - {mu0: 0, rank: 2, ndensity: 2, num_ms_combs: 4, mus: [0, 0], ns: [2, 3], ls: [3, 3], ms_combs: [0, 0, 1, -1, 2, -2, 3, -3], ctildes: [-0.023984649149463525, 0.031269936606542058, 0.04796929829892705, -0.062539873213084116, -0.047969298298927043, 0.062539873213084116, 0.047969298298927043, -0.062539873213084116]}
    - {mu0: 0, rank: 2, ndensity: 2, num_ms_combs: 1, mus: [0, 0], ns: [2, 4], ls: [0, 0], ms_combs: [0, 0], ctildes: [0.18288738613160252, -0.050941839590816669]}
    - {mu0: 0, rank: 2, ndensity: 2, num_ms_combs: 2, mus: [0, 0], ns: [2, 4], ls: [1, 1], ms_combs: [0, 0, 1, -1], ctildes: [0.064589707448990202, -0.023388274176756953, -0.12917941489798038, 0.0467765483535139]}
    - {mu0: 0, rank: 2, ndensity: 2, num_ms_combs: 3, mus: [0, 0], ns: [2, 4], ls: [2, 2], ms_combs: [0, 0, 1, -1, 2, -2], ctildes: [0.0012861747789181797, -0.066584011117874015, -0.0025723495578363598, 0.13316802223574806, 0.0025723495578363607, -0.13316802223574808]}
    - {mu0: 0, rank: 2, ndensity: 2, num_ms_combs: 4, mus: [0, 0], ns: [2, 4], ls: [3, 3], ms_combs: [0, 0, 1, -1, 2, -2, 3, -3], ctildes: [0.0091502498514744283, -0.0044689451832463124, -0.018300499702948857, 0.0089378903664926249, 0.018300499702948853, -0.0089378903664926231, -0.018300499702948853, 0.0089378903664926231]}
    - {mu0: 0, rank: 2, ndensity: 2, num_ms_combs: 1, mus: [0, 0], ns: [2, 5], ls: [0, 0], ms_combs: [0, 0], ctildes: [-0.0066771339920341545, -0.08205344588337371]}
    - {mu0: 0, rank: 2, ndensity: 2, num_ms_combs: 2, mus: [0, 0], ns: [2, 5], ls: [1, 1], ms_combs: [0, 0, 1, -1], ctildes: [-0.0075941726636786075, -0.089997224046283533, 0.015188345327357211, 0.17999444809256704]}
    - {mu0: 0, rank: 2, ndensity: 2, num_ms_combs: 3, mus: [0, 0], ns: [2, 5], ls: [2, 2], ms_combs: [0, 0, 1, -1, 2, -2], ctildes: [0.039737890630458239, -0.02611487477154047, -0.079475781260916478, 0.05222974954308094, 0.079475781260916506, -0.052229749543080954]}
    - {mu0: 0, rank: 2, ndensity: 2, num_ms_combs: 4, mus: [0, 0], ns: [2, 5], ls: [3, 3], ms_combs: [0, 0, 1, -1, 2, -2, 3, -3], ctildes: [0.0031625088121849114, 0.0080278577886332813, -0.0063250176243698228, -0.016055715577266563, 0.006325017624369822, 0.016055715577266559, -0.006325017624369822, -0.016055715577266559]}
    - {mu0: 0, rank: 2, ndensity: 2, num_ms_combs: 1, mus: [0, 0], ns: [3, 3], ls: [0, 0], ms_combs: [0, 0], ctildes: [0.20113307453292853, 0.069454178971854963]}
    - {mu0: 0, rank: 2, ndensity: 2, num_ms_combs: 2, mus: [0, 0], ns: [3, 3], ls: [1, 1], ms_combs: [0, 0, 1, -1], ctildes: [0.09417110579620834, 0.073596279998258199, -0.18834221159241665, -0.14719255999651637]}
    - {mu0: 0, rank: 2, ndensity: 2, num_ms_combs: 3, mus: [0, 0], ns: [3, 3], ls: [2, 2], ms_combs: [0, 0, 1, -1, 2, -2], ctildes: [-0.046585818745167956, -0.014779215152640192, 0.093171637490335912, 0.029558430305280388, -0.09317163749033594, -0.029558430305280395]}
    - {mu0: 0, rank: 2, ndensity: 2, num_ms_combs: 4, mus: [0, 0], ns: [3, 3], ls: [3, 3], ms_combs: [0, 0, 1, -1, 2, -2, 3, -3], ctildes: [0.010132281780085791, -0.020012091243053778, -0.020264563560171582, 0.040024182486107555, 0.020264563560171579, -0.040024182486107548, -0.020264563560171579, 0.040024182486107548]}
    - {mu0: 0, rank: 2, ndensity: 2, num_ms_combs: 1, mus: [0, 0], ns: [3, 4], ls: [0, 0], ms_combs: [0, 0], ctildes: [0.17538006804419448, -0.04736125640328228]}
    - {mu0: 0, rank: 2, ndensity: 2, num_ms_combs: 2, mus: [0, 0], ns: [3, 4], ls: [1, 1], ms_combs: [0, 0, 1, -1], ctildes: [-0.13320459018537317, 0.027549020793231595, 0.26640918037074629, -0.055098041586463184]}
    - {mu0: 0, rank: 2, ndensity: 2, num_ms_combs: 3, mus: [0, 0], ns: [3, 4], ls: [2, 2], ms_combs: [0, 0, 1, -1, 2, -2], ctildes: [0.061765014509021235, -0.028893374083886907, -0.12353002901804248, 0.057786748167773822, 0.12353002901804251, -0.057786748167773835]}
    - {mu0: 0, rank: 2, ndensity: 2, num_ms_combs: 4, mus: [0, 0], ns: [3, 4], ls: [3, 3], ms_combs: [0, 0, 1, -1, 2, -2, 3, -3], ctildes: [-0.0066567484850437991, 0.022388360748870906, 0.013313496970087598, -0.044776721497741812, -0.013313496970087596, 0.044776721497741805, 0.013313496970087596, -0.044776721497741805]}
    - {mu0: 0, rank: 2, ndensity: 2, num_ms_combs: 1, mus: [0, 0], ns: [3, 5], ls: [0, 0], ms_combs: [0, 0], ctildes: [0.016182661602199357, 0.041887742723235907]}
    - {mu0: 0, rank: 2, ndensity: 2, num_ms_combs: 2, mus: [0, 0], ns: [3, 5], ls: [1, 1], ms_combs: [0, 0, 1, -1], ctildes: [0.02513236059226746, 0.11845448056162201, -0.050264721184534913, -0.23690896112324397]}
    - {mu0: 0, rank: 2, ndensity: 2, num_ms_combs: 3, mus: [0, 0], ns: [3, 5], ls: [2, 2], ms_combs: [0, 0, 1, -1, 2, -2], ctildes: [-0.030129479860872638, 0.01032424202112843, 0.060258959721745289, -0.020648484042256863, -0.060258959721745303, 0.020648484042256866]}
    - {mu0: 0, rank: 2, ndensity: 2, num_ms_combs: 4, mus: [0, 0], ns: [3, 5], ls: [3, 3], ms_combs: [0, 0, 1, -1, 2, -2, 3, -3], ctildes: [-0.0029808112910092465, -0.016457241487021917, 0.0059616225820184931, 0.032914482974043834, -0.0059616225820184922, -0.032914482974043834, 0.0059616225820184922, 0.032914482974043834]}
    - {mu0: 0, rank: 2, ndensity: 2, num_ms_combs: 1, mus: [0, 0], ns: [4, 4], ls: [0, 0], ms_combs: [0, 0], ctildes: [-0.1016847150423988, -0.017190043347891031]}
    - {mu0: 0, rank: 2, ndensity: 2, num_ms_combs: 2, mus: [0, 0], ns: [4, 4], ls: [1, 1], ms_combs: [0, 0, 1, -1], ctildes: [-0.097916650615442732, 0.081485499241598078, 0.19583330123088544, -0.16297099848319613]}
    - {mu0: 0, rank: 2, ndensity: 2, num_ms_combs: 3, mus: [0, 0], ns: [4, 4], ls: [2, 2], ms_combs: [0, 0, 1, -1, 2, -2], ctildes: [0.0015862251307162505, -0.059234967107907016, -0.0031724502614325014, 0.11846993421581405, 0.0031724502614325022, -0.11846993421581407]}
    - {mu0: 0, rank: 2, ndensity: 2, num_ms_combs: 4, mus: [0, 0], ns: [4, 4], ls: [3, 3], ms_combs: [0, 0, 1, -1, 2, -2, 3, -3], ctildes: [-0.0022998978580440091, -0.0068703335708939772, 0.0045997957160880181, 0.013740667141787954, -0.0045997957160880181, -0.013740667141787953, 0.0045997957160880181, 0.013740667141787953]}
    - {mu0: 0, rank: 2, ndensity: 2, num_ms_combs: 1, mus: [0, 0], ns: [4, 5], ls: [0, 0], ms_combs: [0, 0], ctildes: [0.0028289851661162648, -0.037379131366482646]}
    - {mu0: 0, rank: 2, ndensity: 2, num_ms_combs: 2, mus: [0, 0], ns: [4, 5], ls: [1, 1], ms_combs: [0, 0, 1, -1], ctildes: [0.0085718740779251231, -0.073424676862786462, -0.017143748155850243, 0.1468493537255729]}
    - {mu0: 0, rank: 2, ndensity: 2, num_ms_combs: 3, mus: [0, 0], ns: [4, 5], ls: [2, 2], ms_combs: [0, 0, 1, -1, 2, -2], ctildes: [0.015330748475518456, -0.0072460895722515238, -0.030661496951036916, 0.014492179144503049, 0.030661496951036923, -0.014492179144503053]}
    - {mu0: 0, rank: 2, ndensity: 2, num_ms_combs: 4, mus: [0, 0], ns: [4, 5], ls: [3, 3], ms_combs: [0, 0, 1, -1, 2, -2, 3, -3], ctildes: [0.013385117940659684, 0.0077347291980951775, -0.026770235881319368, -0.015469458396190355, 0.026770235881319365, 0.015469458396190353, -0.026770235881319365, -0.015469458396190353]}
    - {mu0: 0, rank: 2, ndensity: 2, num_ms_combs: 1, mus: [0, 0], ns: [5, 5], ls: [0, 0], ms_combs: [0, 0], ctildes: [-0.00013427181450961447, 0.007155746939887477]}
    - {mu0: 0, rank: 2, ndensity: 2, num_ms_combs: 2, mus: [0, 0], ns: [5, 5], ls: [1, 1], ms_combs: [0, 0, 1, -1], ctildes: [-0.0064848513106840018, 0.0079889060574188167, 0.012969702621368002, -0.01597781211483763]}
    - {mu0: 0, rank: 2, ndensity: 2, num_ms_combs: 3, mus: [0, 0], ns: [5, 5], ls: [2, 2], ms_combs: [0, 0, 1, -1, 2, -2], ctildes: [-0.00012974094632299085, -0.0010739040620306646, 0.0002594818926459817, 0.0021478081240613291, -0.00025948189264598175, -0.00214780812406133]}
    - {mu0: 0, rank: 2, ndensity: 2, num_ms_combs: 4, mus: [0, 0], ns: [5, 5], ls: [3, 3], ms_combs: [0, 0, 1, -1, 2, -2, 3, -3], ctildes: [-0.0070980525536170373, -0.00061316602171839233, 0.014196105107234075, 0.0012263320434367847, -0.014196105107234073, -0.0012263320434367845, 0.014196105107234073, 0.0012263320434367845]}
    - {mu0: 0, rank: 3, ndensity: 2, num_ms_combs: 1, mus: [0, 0, 0], ns: [1, 1, 1], ls: [0, 0, 0], ms_combs: [0, 0, 0], ctildes: [0.17104584846688992, 0.21513915592171198]}
    - {mu0: 0, rank: 3, ndensity: 2, num_ms_combs: 2, mus: [0, 0, 0], ns: [1, 1, 1], ls: [0, 1, 1], ms_combs: [0, 0, 0, 0, 1, -1], ctildes: [0.25625956364692343, -0.003280623366502795, -0.51251912729384674, 0.0065612467330055891]}
    - {mu0: 0, rank: 3, ndensity: 2, num_ms_combs: 3, mus: [0, 0, 0], ns: [1, 1, 1], ls: [0, 2, 2], ms_combs: [0, 0, 0, 0, 1, -1, 0, 2, -2], ctildes: [0.130146534575522, 0.069421872275736513, -0.260293069151044, -0.13884374455147305, 0.26029306915104405, 0.13884374455147308]}
    - {mu0: 0, rank: 3, ndensity: 2, num_ms_combs: 4, mus: [0, 0, 0], ns: [1, 1, 1], ls: [1, 1, 2], ms_combs: [-1, 1, 0, 0, 0, 0, 0, 1, -1, 1, 1, -2], ctildes: [0.10972030150063461, 0.087244918742671665, 0.1097203015006346, 0.087244918742671651, -0.38008227364174979, -0.30222526392905108, 0.26875875310088232, 0.21370553357012614]}
    - {mu0: 0, rank: 3, ndensity: 2, num_ms_combs: 5, mus: [0, 0, 0], ns: [1, 1, 1], ls: [2, 2, 2], ms_combs: [-2, 0, 2, -2, 1, 1, -1, -1, 2, -1, 0, 1, 0, 0, 0], ctildes: [0.0036948842216953433, 0.10299755783650681, -0.0030168603339380496, -0.084097153817413506, -0.0015084301669690248, -0.042048576908706753, 0.001847442110847671, 0.051498778918253385, -0.00061581403694922364, -0.017166259639417793]}
    - {mu0: 0, rank: 3, ndensity: 2, num_ms_combs: 1, mus: [0, 0, 0], ns: [1, 1, 2], ls: [0, 0, 0], ms_combs: [0, 0, 0], ctildes: [-0.073513865190679387, -0.013446674044355882]}
    - {mu0: 0, rank: 3, ndensity: 2, num_ms_combs: 2, mus: [0, 0, 0], ns: [1, 1, 2], ls: [0, 1, 1], ms_combs: [0, 0, 0, 0, 1, -1], ctildes: [0.14649957468052754, 0.11474156432852195, -0.29299914936105503, -0.22948312865704384]}
    - {mu0: 0, rank: 3, ndensity: 2, num_ms_combs: 3, mus: [0, 0, 0], ns: [1, 1, 2], ls: [0, 2, 2], ms_combs: [0, 0, 0, 0, 1, -1, 0, 2, -2], ctildes: [-0.061570487190908713, -0.0034323626666104604, 0.12314097438181744, 0.0068647253332209217, -0.12314097438181747, -0.0068647253332209234]}
    - {mu0: 0, rank: 3, ndensity: 2, num_ms_combs: 2, mus: [0, 0, 0], ns: [1, 1, 2], ls: [1, 1, 0], ms_combs: [0, 0, 0, 1, -1, 0], ctildes: [-0.20045206175735256, -0.07073591664824419, 0.40090412351470506, 0.14147183329648835]}
    - {mu0: 0, rank: 3, ndensity: 2, num_ms_combs: 4, mus: [0, 0, 0], ns: [1, 1, 2], ls: [1, 1, 2], ms_combs: [-1, 1, 0, 0, 0, 0, 0, 1, -1, 1, 1, -2], ctildes: [-0.039485373786316121, -0.025095581384415245, -0.039485373786316114, -0.025095581384415241, 0.13678134710749562, 0.086933644006573829, -0.096719018079541141, -0.061471369190305623]}
    - {mu0: 0, rank: 3, ndensity: 2, num_ms_combs: 5, mus: [0, 0, 0], ns: [1, 1, 2], ls: [1, 2, 1], ms_combs: [0, 0, 0, 0, 1, -1, 1, -2, 1, 1, -1, 0, 1, 0, -1], ctildes: [-0.094332990374562734, -0.05356965793316211, 0.16338953215864851, 0.092785369284321947, -0.23106769232855567, -0.13121832763168409, 0.16338953215864851, 0.092785369284321947, -0.09433299037456272, -0.053569657933162103]}
    - {mu0: 0, rank: 3, ndensity: 2, num_ms_combs: 3, mus: [0, 0, 0], ns: [1, 1, 2], ls: [2, 2, 0], ms_combs: [0, 0, 0, 1, -1, 0, 2, -2, 0], ctildes: [0.0075267839545835992, -0.039087672813764816, -0.0150535679091672, 0.078175345627529633, 0.015053567909167204, -0.07817534562752966]}
    - {mu0: 0, rank: 3, ndensity: 2, num_ms_combs: 8, mus: [0, 0, 0], ns: [1, 1, 2], ls: [2, 2, 2], ms_combs: [-2, 1, 1, -2, 2, 0, -1, 1, 0, -1, 2, -1, 0, 0, 0, 0, 1, -1, 0, 2, -2, 1, 1, -2], ctildes: [0.12549222981807334, -0.020935735321728984, -0.10246397657945329, 0.017093956309399538, -0.051231988289726645, 0.0085469781546997688, 0.12549222981807334, -0.020935735321728984, 0.051231988289726645, -0.0085469781546997688, -0.10246397657945329, 0.017093956309399538, -0.20492795315890669, 0.034187912618799096, 0.12549222981807334, -0.020935735321728984]}
    - {mu0: 0, rank: 3, ndensity: 2, num_ms_combs: 1, mus: [0, 0, 0], ns: [1, 1, 3], ls: [0, 0, 0], ms_combs: [0, 0, 0], ctildes: [0.064988151328405408, -0.12399590400665213]}
    - {mu0: 0, rank: 3, ndensity: 2, num_ms_combs: 2, mus: [0, 0, 0], ns: [1, 1, 3], ls: [0, 1, 1], ms_combs: [0, 0, 0, 0, 1, -1], ctildes: [0.16434296709863375, -0.020909590762191031, -0.32868593419726738, 0.041819181524382056]}
    - {mu0: 0, rank: 3, ndensity: 2, num_ms_combs: 3, mus: [0, 0, 0], ns: [1, 1, 3], ls: [0, 2, 2], ms_combs: [0, 0, 0, 0, 1, -1, 0, 2, -2], ctildes: [0.05437321796295775, -0.01585219567276832, -0.10874643592591551, 0.031704391345536639, 0.10874643592591554, -0.031704391345536653]}
    - {mu0: 0, rank: 3, ndensity: 2, num_ms_combs: 2, mus: [0, 0, 0], ns: [1, 1, 3], ls: [1, 1, 0], ms_combs: [0, 0, 0, 1, -1, 0], ctildes: [-0.10936022739560762, -0.017036780490023787, 0.21872045479121521, 0.034073560980047567]}
    - {mu0: 0, rank: 3, ndensity: 2, num_ms_combs: 4, mus: [0, 0, 0], ns: [1, 1, 3], ls: [1, 1, 2], ms_combs: [-1, 1, 0, 0, 0, 0, 0, 1, -1, 1, 1, -2], ctildes: [0.024455424742927268, 0.050775377043813005, 0.024455424742927265, 0.050775377043812998, -0.084716076350854166, -0.17589106562670112, 0.059903312063206295, 0.12437376525476844]}
    - {mu0: 0, rank: 3, ndensity: 2, num_ms_combs: 5, mus: [0, 0, 0], ns: [1, 1, 3], ls: [1, 2, 1], ms_combs: [0, 0, 0, 0, 1, -1, 1, -2, 1, 1, -1, 0, 1, 0, -1], ctildes: [-0.12827142735116748, -0.024950396336767131, 0.2221726293316022, 0.043215354124261071, -0.31419954558884233, -0.061115739905286064, 0.2221726293316022, 0.043215354124261071, -0.12827142735116745, -0.024950396336767128]}
    - {mu0: 0, rank: 3, ndensity: 2, num_ms_combs: 3, mus: [0, 0, 0], ns: [1, 1, 3], ls: [2, 2, 0], ms_combs: [0, 0, 0, 1, -1, 0, 2, -2, 0], ctildes: [-0.033915229705093829, -0.050758315876431433, 0.067830459410187671, 0.10151663175286288, -0.067830459410187685, -0.10151663175286289]}
    - {mu0: 0, rank: 3, ndensity: 2, num_ms_combs: 8, mus: [0, 0, 0], ns: [1, 1, 3], ls: [2, 2, 2], ms_combs: [-2, 1, 1, -2, 2, 0, -1, 1, 0, -1, 2, -1, 0, 0, 0, 0, 1, -1, 0, 2, -2, 1, 1, -2], ctildes: [-0.062754475033059323, -0.00732302998353651, 0.051238814302407266, 0.0059792289435887805, 0.025619407151203633, 0.0029896144717943903, -0.062754475033059323, -0.00732302998353651, -0.025619407151203633, -0.0029896144717943903, 0.051238814302407266, 0.0059792289435887805, 0.10247762860481459, 0.011958457887177568, -0.062754475033059323, -0.00732302998353651]}
    - {mu0: 0, rank: 3, ndensity: 2, num_ms_combs: 1, mus: [0, 0, 0], ns: [1, 1, 4], ls: [0, 0, 0], ms_combs: [0, 0, 0], ctildes: [0.011728302171204758, -0.050379314729879068]}
    - {mu0: 0, rank: 3, ndensity: 2, num_ms_combs: 2, mus: [0, 0, 0], ns: [1, 1, 4], ls: [0, 1, 1], ms_combs: [0, 0, 0, 0, 1, -1], ctildes: [-0.099035643960991432, -0.018786507249524922, 0.19807128792198284, 0.037573014499049838]}
    - {mu0: 0, rank: 3, ndensity: 2, num_ms_combs: 3, mus: [0, 0, 0], ns: [1, 1, 4], ls: [0, 2, 2], ms_combs: [0, 0, 0, 0, 1, -1, 0, 2, -2], ctildes: [-0.055896102408727943, -0.047707383071716625, 0.1117922048174559, 0.095414766143433249, -0.11179220481745593, -0.095414766143433277]}
    - {mu0: 0, rank: 3, ndensity: 2, num_ms_combs: 2, mus: [0, 0, 0], ns: [1, 1, 4], ls: [1, 1, 0], ms_combs: [0, 0, 0, 1, -1, 0], ctildes: [-0.048915831110807953, 0.061248929585960094, 0.097831662221615892, -0.12249785917192017]}
    - {mu0: 0, rank: 3, ndensity: 2, num_ms_combs: 4, mus: [0, 0, 0], ns: [1, 1, 4], ls: [1, 1, 2], ms_combs: [-1, 1, 0, 0, 0, 0, 0, 1, -1, 1, 1, -2], ctildes: [-0.00011491178838366507, -0.024324333783907533, -0.00011491178838366506, -0.024324333783907529, 0.00039806611173822212, 0.084261963947983937, -0.00028147524697065882, -0.059582206103715847]}
    - {mu0: 0, rank: 3, ndensity: 2, num_ms_combs: 5, mus: [0, 0, 0], ns: [1, 1, 4], ls: [1, 2, 1], ms_combs: [0, 0, 0, 0, 1, -1, 1, -2, 1, 1, -1, 0, 1, 0, -1], ctildes: [-0.035731426543861272, -0.06647109146703363, 0.061888646200882941, 0.11513130765546033, -0.087523762814198769, -0.16282025674010131, 0.061888646200882941, 0.11513130765546033, -0.035731426543861265, -0.066471091467033616]}
    - {mu0: 0, rank: 3, ndensity: 2, num_ms_combs: 3, mus: [0, 0, 0], ns: [1, 1, 4], ls: [2, 2, 0], ms_combs: [0, 0, 0, 1, -1, 0, 2, -2, 0], ctildes: [-0.074736759350519433, -0.033854435693219047, 0.14947351870103887, 0.067708871386438094, -0.14947351870103892, -0.067708871386438121]}
    - {mu0: 0, rank: 3, ndensity: 2, num_ms_combs: 8, mus: [0, 0, 0], ns: [1, 1, 4], ls: [2, 2, 2], ms_combs: [-2, 1, 1, -2, 2, 0, -1, 1, 0, -1, 2, -1, 0, 0, 0, 0, 1, -1, 0, 2, -2, 1, 1, -2], ctildes: [0.01223758442774254, -0.017671723659263602, -0.0099919458440661645, 0.014428901946888331, -0.0049959729220330823, 0.0072144509734441654, 0.01223758442774254, -0.017671723659263602, 0.0049959729220330823, -0.0072144509734441654, -0.0099919458440661645, 0.014428901946888331, -0.019983891688132339, 0.028857803893776679, 0.01223758442774254, -0.017671723659263602]}
    - {mu0: 0, rank: 3, ndensity: 2, num_ms_combs: 1, mus: [0, 0, 0], ns: [1, 2, 2], ls: [0, 0, 0], ms_combs: [0, 0, 0], ctildes: [-0.17911850661308162, -0.21954689239137304]}
    - {mu0: 0, rank: 3, ndensity: 2, num_ms_combs: 2, mus: [0, 0, 0], ns: [1, 2, 2], ls: [0, 1, 1], ms_combs: [0, 0, 0, 0, 1, -1], ctildes: [0.037995824095054267, 0.12829709251573568, -0.075991648190108521, -0.2565941850314713]}
    - {mu0: 0, rank: 3, ndensity: 2, num_ms_combs: 3, mus: [0, 0, 0], ns: [1, 2, 2], ls: [0, 2, 2], ms_combs: [0, 0, 0, 0, 1, -1, 0, 2, -2], ctildes: [-0.036416463155421963, -0.041431838951955423, 0.072832926310843926, 0.082863677903910846, -0.072832926310843954, -0.082863677903910873]}
    - {mu0: 0, rank: 3, ndensity: 2, num_ms_combs: 2, mus: [0, 0, 0], ns: [1, 2, 2], ls: [1, 0, 1], ms_combs: [0, 0, 0, 1, 0, -1], ctildes: [-0.062006172045444355, 0.0070121292297263427, 0.12401234409088868, -0.014024258459452684]}
    - {mu0: 0, rank: 3, ndensity: 2, num_ms_combs: 5, mus: [0, 0, 0], ns: [1, 2, 2], ls: [1, 1, 2], ms_combs: [0, 0, 0, 0, 1, -1, 1, -1, 0, 1, 0, -1, 1, 1, -2], ctildes: [-0.0077810378186623516, -0.098515773840647761, 0.013477152837538106, 0.17063432563896688, -0.0077810378186623525, -0.098515773840647775, 0.013477152837538106, 0.17063432563896688, -0.019059572325021434, -0.24131337752501411]}
    - {mu0: 0, rank: 3, ndensity: 2, num_ms_combs: 3, mus: [0, 0, 0], ns: [1, 2, 2], ls: [2, 0, 2], ms_combs: [0, 0, 0, 1, 0, -1, 2, 0, -2], ctildes: [-0.10172496143069634, -0.008905886324576234, 0.20344992286139271, 0.017811772649152468, -0.20344992286139277, -0.017811772649152475]}
    - {mu0: 0, rank: 3, ndensity: 2, num_ms_combs: 4, mus: [0, 0, 0], ns: [1, 2, 2], ls: [2, 1, 1], ms_combs: [0, -1, 1, 0, 0, 0, 1, -1, 0, 2, -1, -1], ctildes: [0.049290253112701007, 0.038833360657537438, 0.049290253112701014, 0.038833360657537445, -0.17074644541825634, -0.13452270737500241, 0.12073596941874776, 0.095121918608437786]}
    - {mu0: 0, rank: 3, ndensity: 2, num_ms_combs: 7, mus: [0, 0, 0], ns: [1, 2, 2], ls: [2, 2, 2], ms_combs: [0, -2, 2, 0, -1, 1, 0, 0, 0, 1, -2, 1, 1, -1, 0, 2, -2, 0, 2, -1, -1], ctildes: [0.05239036709331104, 0.066535946607672092, 0.026195183546655502, 0.033267973303836025, -0.026195183546655502, -0.033267973303836025, -0.1283296668157107, -0.16297911874186194, 0.052390367093311005, 0.06653594660767205, 0.10478073418662204, 0.13307189321534413, -0.064164833407855351, -0.08148955937093097]}
    - {mu0: 0, rank: 3, ndensity: 2, num_ms_combs: 1, mus: [0, 0, 0], ns: [1, 2, 3], ls: [0, 0, 0], ms_combs: [0, 0, 0], ctildes: [-0.22675420627924534, -0.043106632975536824]}
    - {mu0: 0, rank: 3, ndensity: 2, num_ms_combs: 2, mus: [0, 0, 0], ns: [1, 2, 3], ls: [0, 1, 1], ms_combs: [0, 0, 0, 0, 1, -1], ctildes: [-0.17391156153236137, -0.13222870115741875, 0.34782312306472268, 0.26445740231483744]}
    - {mu0: 0, rank: 3, ndensity: 2, num_ms_combs: 3, mus: [0, 0, 0], ns: [1, 2, 3], ls: [0, 2, 2], ms_combs: [0, 0, 0, 0, 1, -1, 0, 2, -2], ctildes: [-0.006375371403285709, -0.08527234174182434, 0.01275074280657142, 0.17054468348364868, -0.012750742806571423, -0.17054468348364873]}
    - {mu0: 0, rank: 3, ndensity: 2, num_ms_combs: 2, mus: [0, 0, 0], ns: [1, 2, 3], ls: [1, 0, 1], ms_combs: [0, 0, 0, 1, 0, -1], ctildes: [-0.014184788972034007, -0.14635420377636474, 0.028369577944068008, 0.29270840755272942]}
    - {mu0: 0, rank: 3, ndensity: 2, num_ms_combs: 2, mus: [0, 0, 0], ns: [1, 2, 3], ls: [1, 1, 0], ms_combs: [0, 0, 0, 1, -1, 0], ctildes: [0.026688382528311454, 0.0062103925572286039, -0.0533767650566229, -0.012420785114457204]}
    - {mu0: 0, rank: 3, ndensity: 2, num_ms_combs: 5, mus: [0, 0, 0], ns: [1, 2, 3], ls: [1, 1, 2], ms_combs: [0, 0, 0, 0, 1, -1, 1, -1, 0, 1, 0, -1, 1, 1, -2], ctildes: [0.017370459302053453, -0.025926239237988931, -0.030086518061964006, 0.044905563609382658, 0.017370459302053456, -0.025926239237988934, -0.030086518061964006, 0.044905563609382658, 0.042548761887812592, -0.063506057082396677]}
    - {mu0: 0, rank: 3, ndensity: 2, num_ms_combs: 5, mus: [0, 0, 0], ns: [1, 2, 3], ls: [1, 2, 1], ms_combs: [0, 0, 0, 0, 1, -1, 1, -2, 1, 1, -1, 0, 1, 0, -1], ctildes: [0.10070876958606559, 0.058980300413574507, -0.1744327056908129, -0.10215687696198672, 0.24668509810938213, 0.14447164088932118, -0.1744327056908129, -0.10215687696198672, 0.10070876958606556, 0.0589803004135745]}
    - {mu0: 0, rank: 3, ndensity: 2, num_ms_combs: 3, mus: [0, 0, 0], ns: [1, 2, 3], ls: [2, 0, 2], ms_combs: [0, 0, 0, 1, 0, -1, 2, 0, -2], ctildes: [0.10268215717781104, 0.034865678491280493, -0.20536431435562211, -0.069731356982560999, 0.20536431435562216, 0.069731356982561013]}
    - {mu0: 0, rank: 3, ndensity: 2, num_ms_combs: 5, mus: [0, 0, 0], ns: [1, 2, 3], ls: [2, 1, 1], ms_combs: [0, 0, 0, 0, 1, -1, 1, -1, 0, 1, 0, -1, 2, -1, -1], ctildes: [-0.062195838542831755, -0.013584851661513294, -0.062195838542831741, -0.013584851661513292, 0.10772635237553525, 0.023529653291027505, 0.10772635237553525, 0.023529653291027505, -0.15234806855446503, -0.033275954802107828]}
    - {mu0: 0, rank: 3, ndensity: 2, num_ms_combs: 3, mus: [0, 0, 0], ns: [1, 2, 3], ls: [2, 2, 0], ms_combs: [0, 0, 0, 1, -1, 0, 2, -2, 0], ctildes: [-0.0067324205643326399, -0.0058613978892034816, 0.013464841128665282, 0.011722795778406965, -0.013464841128665285, -0.011722795778406967]}
    - {mu0: 0, rank: 3, ndensity: 2, num_ms_combs: 10, mus: [0, 0, 0], ns: [1, 2, 3], ls: [2, 2, 2], ms_combs: [0, 0, 0, 0, 1, -1, 0, 2, -2, 1, -2, 1, 1, -1, 0, 1, 0, -1, 1, 1, -2, 2, -2, 0, 2, -1, -1, 2, 0, -2], ctildes: [-0.072939659226643916, -0.024944950969908664, 0.072939659226643916, 0.024944950969908664, 0.14587931845328792, 0.049889901939817356, -0.17866494711776471, -0.061102401535020577, 0.072939659226643916, 0.024944950969908664, 0.072939659226643916, 0.024944950969908664, -0.17866494711776471, -0.061102401535020577, 0.14587931845328783, 0.049889901939817329, -0.17866494711776471, -0.061102401535020577, 0.14587931845328792, 0.049889901939817356]}
    - {mu0: 0, rank: 3, ndensity: 2, num_ms_combs: 1, mus: [0, 0, 0], ns: [1, 2, 4], ls: [0, 0, 0], ms_combs: [0, 0, 0], ctildes: [0.045774273407789827, -0.01831944030905451]}
    - {mu0: 0, rank: 3, ndensity: 2, num_ms_combs: 2, mus: [0, 0, 0], ns: [1, 2, 4], ls: [0, 1, 1], ms_combs: [0, 0, 0, 0, 1, -1], ctildes: [0.045708025093779275, 0.066531036254157197, -0.091416050187558537, -0.13306207250831437]}
    - {mu0: 0, rank: 3, ndensity: 2, num_ms_combs: 3, mus: [0, 0, 0], ns: [1, 2, 4], ls: [0, 2, 2], ms_combs: [0, 0, 0, 0, 1, -1, 0, 2, -2], ctildes: [0.047250586917557624, -0.049651180754152091, -0.094501173835115262, 0.099302361508304196, 0.09450117383511529, -0.099302361508304224]}
    - {mu0: 0, rank: 3, ndensity: 2, num_ms_combs: 2, mus: [0, 0, 0], ns: [1, 2, 4], ls: [1, 0, 1], ms_combs: [0, 0, 0, 1, 0, -1], ctildes: [-0.051505677872567317, 0.028503289037769448, 0.10301135574513462, -0.05700657807553889]}
    - {mu0: 0, rank: 3, ndensity: 2, num_ms_combs: 2, mus: [0, 0, 0], ns: [1, 2, 4], ls: [1, 1, 0], ms_combs: [0, 0, 0, 1, -1, 0], ctildes: [0.067877559404974641, -0.065296779849090839, -0.13575511880994925, 0.13059355969818165]}
    - {mu0: 0, rank: 3, ndensity: 2, num_ms_combs: 5, mus: [0, 0, 0], ns: [1, 2, 4], ls: [1, 1, 2], ms_combs: [0, 0, 0, 0, 1, -1, 1, -1, 0, 1, 0, -1, 1, 1, -2], ctildes: [-0.0023908999008564668, -0.0054484847856642515, 0.0041411601040947932, 0.0094370524730365106, -0.0023908999008564673, -0.0054484847856642524, 0.0041411601040947932, 0.0094370524730365106, -0.0058564847831692355, -0.013346007596194791]}
    - {mu0: 0, rank: 3, ndensity: 2, num_ms_combs: 5, mus: [0, 0, 0], ns: [1, 2, 4], ls: [1, 2, 1], ms_combs: [0, 0, 0, 0, 1, -1, 1, -2, 1, 1, -1, 0, 1, 0, -1], ctildes: [0.055025194911236433, 0.020380488055586888, -0.095306433282641947, -0.035300040795327128, 0.13478365052971877, 0.049921796445075162, -0.095306433282641947, -0.035300040795327128, 0.055025194911236426, 0.020380488055586884]}
    - {mu0: 0, rank: 3, ndensity: 2, num_ms_combs: 3, mus: [0, 0, 0], ns: [1, 2, 4], ls: [2, 0, 2], ms_combs: [0, 0, 0, 1, 0, -1, 2, 0, -2], ctildes: [0.035651776134499408, 0.089972792816007147, -0.071303552268998829, -0.17994558563201432, 0.071303552268998843, 0.17994558563201438]}
    - {mu0: 0, rank: 3, ndensity: 2, num_ms_combs: 5, mus: [0, 0, 0], ns: [1, 2, 4], ls: [2, 1, 1], ms_combs: [0, 0, 0, 0, 1, -1, 1, -1, 0, 1, 0, -1, 2, -1, -1], ctildes: [0.005113481081170595, -0.0073150089635875331, 0.0051134810811705941, -0.0073150089635875323, -0.0088568090361297053, 0.012669967182755364, -0.0088568090361297053, 0.012669967182755364, 0.012525419458243207, -0.017918039424674667]}
    - {mu0: 0, rank: 3, ndensity: 2, num_ms_combs: 3, mus: [0, 0, 0], ns: [1, 2, 4], ls: [2, 2, 0], ms_combs: [0, 0, 0, 1, -1, 0, 2, -2, 0], ctildes: [0.014036453050728854, 0.019636791575560239, -0.028072906101457712, -0.039273583151120485, 0.028072906101457719, 0.039273583151120492]}
    - {mu0: 0, rank: 3, ndensity: 2, num_ms_combs: 10, mus: [0, 0, 0], ns: [1, 2, 4], ls: [2, 2, 2], ms_combs: [0, 0, 0, 0, 1, -1, 0, 2, -2, 1, -2, 1, 1, -1, 0, 1, 0, -1, 1, 1, -2, 2, -2, 0, 2, -1, -1, 2, 0, -2], ctildes: [-0.018016111565026111, -0.027188966345573318, 0.018016111565026111, 0.027188966345573318, 0.036032223130052242, 0.054377932691146671, -0.04413028048336886, -0.066599094180358892, 0.018016111565026111, 0.027188966345573318, 0.018016111565026111, 0.027188966345573318, -0.04413028048336886, -0.066599094180358892, 0.036032223130052221, 0.054377932691146637, -0.04413028048336886, -0.066599094180358892, 0.036032223130052242, 0.054377932691146671]}
    - {mu0: 0, rank: 3, ndensity: 2, num_ms_combs: 1, mus: [0, 0, 0], ns: [1, 3, 3], ls: [0, 0, 0], ms_combs: [0, 0, 0], ctildes: [-0.08175437338270003, -0.052104033189891472]}
    - {mu0: 0, rank: 3, ndensity: 2, num_ms_combs: 2, mus: [0, 0, 0], ns: [1, 3, 3], ls: [0, 1, 1], ms_combs: [0, 0, 0, 0, 1, -1], ctildes: [-0.048949930421340805, -0.091131021788235803, 0.097899860842681596, 0.18226204357647158]}
    - {mu0: 0, rank: 3, ndensity: 2, num_ms_combs: 3, mus: [0, 0, 0], ns: [1, 3, 3], ls: [0, 2, 2], ms_combs: [0, 0, 0, 0, 1, -1, 0, 2, -2], ctildes: [0.03007019620338577, -0.031873488223806097, -0.060140392406771548, 0.063746976447612208, 0.060140392406771562, -0.063746976447612222]}
    - {mu0: 0, rank: 3, ndensity: 2, num_ms_combs: 2, mus: [0, 0, 0], ns: [1, 3, 3], ls: [1, 0, 1], ms_combs: [0, 0, 0, 1, 0, -1], ctildes: [0.069151008515328877, 0.031267102220234884, -0.13830201703065773, -0.062534204440469754]}
    - {mu0: 0, rank: 3, ndensity: 2, num_ms_combs: 5, mus: [0, 0, 0], ns: [1, 3, 3], ls: [1, 1, 2], ms_combs: [0, 0, 0, 0, 1, -1, 1, -1, 0, 1, 0, -1, 1, 1, -2], ctildes: [-0.040665332642029192, -0.015401385938378325, 0.070434422242683717, 0.026675982952248135, -0.040665332642029199, -0.015401385938378328, 0.070434422242683717, 0.026675982952248135, -0.099609315193516512, -0.037725536880702799]}
    - {mu0: 0, rank: 3, ndensity: 2, num_ms_combs: 3, mus: [0, 0, 0], ns: [1, 3, 3], ls: [2, 0, 2], ms_combs: [0, 0, 0, 1, 0, -1, 2, 0, -2], ctildes: [-0.027948721274405747, 0.0056046397827873764, 0.055897442548811502, -0.011209279565574755, -0.055897442548811516, 0.011209279565574758]}
    - {mu0: 0, rank: 3, ndensity: 2, num_ms_combs: 4, mus: [0, 0, 0], ns: [1, 3, 3], ls: [2, 1, 1], ms_combs: [0, -1, 1, 0, 0, 0, 1, -1, 0, 2, -1, -1], ctildes: [0.035368678638419283, 0.031769658175873669, 0.03536867863841929, 0.031769658175873676, -0.12252069679663646, -0.11005332419941838, 0.08663521554060255, 0.077819451833530298]}
    - {mu0: 0, rank: 3, ndensity: 2, num_ms_combs: 7, mus: [0, 0, 0], ns: [1, 3, 3], ls: [2, 2, 2], ms_combs: [0, -2, 2, 0, -1, 1, 0, 0, 0, 1, -2, 1, 1, -1, 0, 2, -2, 0, 2, -1, -1], ctildes: [-0.046423604150832985, -0.004819596675224711, -0.023211802075416482, -0.0024097983376123542, 0.023211802075416482, 0.0024097983376123542, 0.11371414219049195, 0.011805552620314833, -0.046423604150832964, -0.0048195966752247084, -0.092847208301665943, -0.0096391933504494185, 0.056857071095245973, 0.0059027763101574164]}
    - {mu0: 0, rank: 3, ndensity: 2, num_ms_combs: 1, mus: [0, 0, 0], ns: [1, 3, 4], ls: [0, 0, 0], ms_combs: [0, 0, 0], ctildes: [-0.017685003829389409, -0.089770353342891296]}
    - {mu0: 0, rank: 3, ndensity: 2, num_ms_combs: 2, mus: [0, 0, 0], ns: [1, 3, 4], ls: [0, 1, 1], ms_combs: [0, 0, 0, 0, 1, -1], ctildes: [-0.043983859038057425, -0.00019206790297733242, 0.087967718076114837, 0.00038413580595466474]}
    - {mu0: 0, rank: 3, ndensity: 2, num_ms_combs: 3, mus: [0, 0, 0], ns: [1, 3, 4], ls: [0, 2, 2], ms_combs: [0, 0, 0, 0, 1, -1, 0, 2, -2], ctildes: [-0.062635942190538682, 0.076944667064171676, 0.12527188438107736, -0.15388933412834338, -0.12527188438107739, 0.15388933412834341]}
    - {mu0: 0, rank: 3, ndensity: 2, num_ms_combs: 2, mus: [0, 0, 0], ns: [1, 3, 4], ls: [1, 0, 1], ms_combs: [0, 0, 0, 1, 0, -1], ctildes: [0.12567884225625817, -0.14991744350422631, -0.25135768451251628, 0.29983488700845257]}
    - {mu0: 0, rank: 3, ndensity: 2, num_ms_combs: 2, mus: [0, 0, 0], ns: [1, 3, 4], ls: [1, 1, 0], ms_combs: [0, 0, 0, 1, -1, 0], ctildes: [-0.10982763780500926, 0.035208154450251911, 0.21965527561001846, -0.070416308900503807]}
    - {mu0: 0, rank: 3, ndensity: 2, num_ms_combs: 5, mus: [0, 0, 0], ns: [1, 3, 4], ls: [1, 1, 2], ms_combs: [0, 0, 0, 0, 1, -1, 1, -1, 0, 1, 0, -1, 1, 1, -2], ctildes: [-0.0035235494483076783, -0.10832316925401413, 0.0061029666674501885, 0.18762123278483539, -0.0035235494483076791, -0.10832316925401414, 0.0061029666674501885, 0.18762123278483539, -0.0086308982318189873, -0.26533649199347381]}
    - {mu0: 0, rank: 3, ndensity: 2, num_ms_combs: 5, mus: [0, 0, 0], ns: [1, 3, 4], ls: [1, 2, 1], ms_combs: [0, 0, 0, 0, 1, -1, 1, -2, 1, 1, -1, 0, 1, 0, -1], ctildes: [-0.082742743648326775, 0.079468081623596906, 0.14331463595654897, -0.13764275495210049, -0.20267750185631439, 0.19465625081565699, 0.14331463595654897, -0.13764275495210049, -0.082742743648326761, 0.079468081623596892]}
    - {mu0: 0, rank: 3, ndensity: 2, num_ms_combs: 3, mus: [0, 0, 0], ns: [1, 3, 4], ls: [2, 0, 2], ms_combs: [0, 0, 0, 1, 0, -1, 2, 0, -2], ctildes: [0.03352805473408748, -0.057709145940011961, -0.067056109468174974, 0.11541829188002393, 0.067056109468174988, -0.11541829188002398]}
    - {mu0: 0, rank: 3, ndensity: 2, num_ms_combs: 5, mus: [0, 0, 0], ns: [1, 3, 4], ls: [2, 1, 1], ms_combs: [0, 0, 0, 0, 1, -1, 1, -1, 0, 1, 0, -1, 2, -1, -1], ctildes: [0.037389677142908702, -0.01175878548697137, 0.037389677142908695, -0.011758785486971369, -0.064760820490114612, 0.020366813898737957, -0.064760820490114612, 0.020366813898737957, 0.091585630647529503, -0.028803024437924065]}
    - {mu0: 0, rank: 3, ndensity: 2, num_ms_combs: 3, mus: [0, 0, 0], ns: [1, 3, 4], ls: [2, 2, 0], ms_combs: [0, 0, 0, 1, -1, 0, 2, -2, 0], ctildes: [-0.10714925154374894, 0.011841882356852055, 0.2142985030874979, -0.023683764713704109, -0.21429850308749795, 0.023683764713704116]}
    - {mu0: 0, rank: 3, ndensity: 2, num_ms_combs: 10, mus: [0, 0, 0], ns: [1, 3, 4], ls: [2, 2, 2], ms_combs: [0, 0, 0, 0, 1, -1, 0, 2, -2, 1, -2, 1, 1, -1, 0, 1, 0, -1, 1, 1, -2, 2, -2, 0, 2, -1, -1, 2, 0, -2], ctildes: [0.016601606768466691, -0.023358823162925264, -0.016601606768466691, 0.023358823162925264, -0.033203213536933403, 0.046717646325850549, 0.040665465493078957, -0.057217197741071563, -0.016601606768466691, 0.023358823162925264, -0.016601606768466691, 0.023358823162925264, 0.040665465493078957, -0.057217197741071563, -0.033203213536933382, 0.046717646325850529, 0.040665465493078957, -0.057217197741071563, -0.033203213536933403, 0.046717646325850549]}
    - {mu0: 0, rank: 3, ndensity: 2, num_ms_combs: 1, mus: [0, 0, 0], ns: [1, 4, 4], ls: [0, 0, 0], ms_combs: [0, 0, 0], ctildes: [-0.054809642924827318, 0.10946217825173282]}
    - {mu0: 0, rank: 3, ndensity: 2, num_ms_combs: 2, mus: [0, 0, 0], ns: [1, 4, 4], ls: [0, 1, 1], ms_combs: [0, 0, 0, 0, 1, -1], ctildes: [0.032096935434382579, -0.065883757022706435, -0.064193870868765157, 0.13176751404541284]}
    - {mu0: 0, rank: 3, ndensity: 2, num_ms_combs: 3, mus: [0, 0, 0], ns: [1, 4, 4], ls: [0, 2, 2], ms_combs: [0, 0, 0, 0, 1, -1, 0, 2, -2], ctildes: [0.020063990213937392, -0.010258047064588672, -0.040127980427874792, 0.020516094129177348, 0.040127980427874799, -0.020516094129177355]}
    - {mu0: 0, rank: 3, ndensity: 2, num_ms_combs: 2, mus: [0, 0, 0], ns: [1, 4, 4], ls: [1, 0, 1], ms_combs: [0, 0, 0, 1, 0, -1], ctildes: [0.10862260539328432, -0.13630673672712199, -0.21724521078656858, 0.27261347345424392]}
    - {mu0: 0, rank: 3, ndensity: 2, num_ms_combs: 5, mus: [0, 0, 0], ns: [1, 4, 4], ls: [1, 1, 2], ms_combs: [0, 0, 0, 0, 1, -1, 1, -1, 0, 1, 0, -1, 1, 1, -2], ctildes: [0.032312729081024012, 0.0009611603868361295, -0.055967288499542002, -0.001664778624222733, 0.032312729081024012, 0.00096116038683612961, -0.055967288499542002, -0.001664778624222733, 0.079149698445300051, 0.0023543525087246116]}
    - {mu0: 0, rank: 3, ndensity: 2, num_ms_combs: 3, mus: [0, 0, 0], ns: [1, 4, 4], ls: [2, 0, 2], ms_combs: [0, 0, 0, 1, 0, -1, 2, 0, -2], ctildes: [-0.023484933339535146, -0.0015823722781329748, 0.046969866679070292, 0.0031647445562659501, -0.046969866679070306, -0.0031647445562659506]}
    - {mu0: 0, rank: 3, ndensity: 2, num_ms_combs: 4, mus: [0, 0, 0], ns: [1, 4, 4], ls: [2, 1, 1], ms_combs: [0, -1, 1, 0, 0, 0, 1, -1, 0, 2, -1, -1], ctildes: [0.0032305248934101738, 0.025714744422702409, 0.0032305248934101742, 0.025714744422702412, -0.011190866501004907, -0.089078487687537997, 0.0079131375902139409, 0.062988002701700491]}
    - {mu0: 0, rank: 3, ndensity: 2, num_ms_combs: 7, mus: [0, 0, 0], ns: [1, 4, 4], ls: [2, 2, 2], ms_combs: [0, -2, 2, 0, -1, 1, 0, 0, 0, 1, -2, 1, 1, -1, 0, 2, -2, 0, 2, -1, -1], ctildes: [0.012095933974341633, -0.039759680972018124, 0.0060479669871708131, -0.019879840486009052, -0.0060479669871708131, 0.019879840486009052, -0.02962886619953238, 0.097390930717289867, 0.012095933974341626, -0.039759680972018104, 0.024191867948683256, -0.079519361944036221, -0.01481443309976619, 0.048695465358644933]}
    - {mu0: 0, rank: 3, ndensity: 2, num_ms_combs: 1, mus: [0, 0, 0], ns: [2, 2, 2], ls: [0, 0, 0], ms_combs: [0, 0, 0], ctildes: [-0.042075049885123963, 0.012208422676369547]}
    - {mu0: 0, rank: 3, ndensity: 2, num_ms_combs: 2, mus: [0, 0, 0], ns: [2, 2, 2], ls: [0, 1, 1], ms_combs: [0, 0, 0, 0, 1, -1], ctildes: [-0.082206397404316442, 0.056643527465198046, 0.16441279480863283, -0.11328705493039606]}
    - {mu0: 0, rank: 3, ndensity: 2, num_ms_combs: 3, mus: [0, 0, 0], ns: [2, 2, 2], ls: [0, 2, 2], ms_combs: [0, 0, 0, 0, 1, -1, 0, 2, -2], ctildes: [0.10178452987501077, 0.11735749691405639, -0.20356905975002157, -0.23471499382811281, 0.20356905975002162, 0.23471499382811287]}
    - {mu0: 0, rank: 3, ndensity: 2, num_ms_combs: 4, mus: [0, 0, 0], ns: [2, 2, 2], ls: [1, 1, 2], ms_combs: [-1, 1, 0, 0, 0, 0, 0, 1, -1, 1, 1, -2], ctildes: [-0.017478315551827557, 0.0059366406787248359, -0.017478315551827554, 0.005936640678724835, 0.060546661132973183, -0.020565126563663202, -0.04281295466532932, 0.014541740449125854]}
    - {mu0: 0, rank: 3, ndensity: 2, num_ms_combs: 5, mus: [0, 0, 0], ns: [2, 2, 2], ls: [2, 2, 2], ms_combs: [-2, 0, 2, -2, 1, 1, -1, -1, 2, -1, 0, 1, 0, 0, 0], ctildes: [-0.21276511381463961, -0.092835811902007306, 0.17372198797035171, 0.075800123005638459, 0.086860993985175855, 0.037900061502819229, -0.10638255690731978, -0.046417905951003639, 0.035460852302439921, 0.015472635317001212]}
    - {mu0: 0, rank: 3, ndensity: 2, num_ms_combs: 1, mus: [0, 0, 0], ns: [2, 2, 3], ls: [0, 0, 0], ms_combs: [0, 0, 0], ctildes: [-0.3674900040060779, -0.048165025168253647]}
    - {mu0: 0, rank: 3, ndensity: 2, num_ms_combs: 2, mus: [0, 0, 0], ns: [2, 2, 3], ls: [0, 1, 1], ms_combs: [0, 0, 0, 0, 1, -1], ctildes: [-0.03621849080571618, -0.047574455181539056, 0.072436981611432347, 0.095148910363078099]}
    - {mu0: 0, rank: 3, ndensity: 2, num_ms_combs: 3, mus: [0, 0, 0], ns: [2, 2, 3], ls: [0, 2, 2], ms_combs: [0, 0, 0, 0, 1, -1, 0, 2, -2], ctildes: [-0.0049514307055626011, 0.06909379127939437, 0.009902861411125204, -0.13818758255878877, -0.0099028614111252057, 0.1381875825587888]}
    - {mu0: 0, rank: 3, ndensity: 2, num_ms_combs: 2, mus: [0, 0, 0], ns: [2, 2, 3], ls: [1, 1, 0], ms_combs: [0, 0, 0, 1, -1, 0], ctildes: [0.014592098978510231, 0.015012319950430517, -0.029184197957020454, -0.030024639900861027]}
    - {mu0: 0, rank: 3, ndensity: 2, num_ms_combs: 4, mus: [0, 0, 0], ns: [2, 2, 3], ls: [1, 1, 2], ms_combs: [-1, 1, 0, 0, 0, 0, 0, 1, -1, 1, 1, -2], ctildes: [0.012244812221517815, 0.075509854050536881, 0.012244812221517814, 0.075509854050536868, -0.042417273793618385, -0.26157380737528096, 0.029993541938913997, 0.18496061297584496]}
    - {mu0: 0, rank: 3, ndensity: 2, num_ms_combs: 5, mus: [0, 0, 0], ns: [2, 2, 3], ls: [1, 2, 1], ms_combs: [0, 0, 0, 0, 1, -1, 1, -2, 1, 1, -1, 0, 1, 0, -1], ctildes: [0.0035714150637624264, 0.086436306757503703, -0.0061858723453533642, -0.14971207492260549, 0.0087481445659073932, 0.21172484680656559, -0.0061858723453533642, -0.14971207492260549, 0.003571415063762426, 0.086436306757503689]}
    - {mu0: 0, rank: 3, ndensity: 2, num_ms_combs: 3, mus: [0, 0, 0], ns: [2, 2, 3], ls: [2, 2, 0], ms_combs: [0, 0, 0, 1, -1, 0, 2, -2, 0], ctildes: [-0.019835919727669748, 0.072710187483263522, 0.039671839455339503, -0.14542037496652707, -0.039671839455339517, 0.1454203749665271]}
    - {mu0: 0, rank: 3, ndensity: 2, num_ms_combs: 8, mus: [0, 0, 0], ns: [2, 2, 3], ls: [2, 2, 2], ms_combs: [-2, 1, 1, -2, 2, 0, -1, 1, 0, -1, 2, -1, 0, 0, 0, 0, 1, -1, 0, 2, -2, 1, 1, -2], ctildes: [-0.058504831531801374, 0.03435266150106267, 0.047768994913468428, -0.02804883066138519, 0.023884497456734214, -0.014024415330692595, -0.058504831531801374, 0.03435266150106267, -0.023884497456734214, 0.014024415330692595, 0.047768994913468428, -0.02804883066138519, 0.095537989826936912, -0.056097661322770408, -0.058504831531801374, 0.03435266150106267]}
    - {mu0: 0, rank: 3, ndensity: 2, num_ms_combs: 1, mus: [0, 0, 0], ns: [2, 2, 4], ls: [0, 0, 0], ms_combs: [0, 0, 0], ctildes: [-0.056157473792908232, 0.048801082956771089]}
    - {mu0: 0, rank: 3, ndensity: 2, num_ms_combs: 2, mus: [0, 0, 0], ns: [2, 2, 4], ls: [0, 1, 1], ms_combs: [0, 0, 0, 0, 1, -1], ctildes: [-0.03505076095712336, 0.026771792519911759, 0.070101521914246706, -0.053543585039823503]}
    - {mu0: 0, rank: 3, ndensity: 2, num_ms_combs: 3, mus: [0, 0, 0], ns: [2, 2, 4], ls: [0, 2, 2], ms_combs: [0, 0, 0, 0, 1, -1, 0, 2, -2], ctildes: [-0.04226963345878345, 0.063718440430575188, 0.084539266917566913, -0.1274368808611504, -0.084539266917566927, 0.12743688086115043]}
    - {mu0: 0, rank: 3, ndensity: 2, num_ms_combs: 2, mus: [0, 0, 0], ns: [2, 2, 4], ls: [1, 1, 0], ms_combs: [0, 0, 0, 1, -1, 0], ctildes: [-0.028803738064808935, 0.0019691559984015804, 0.057607476129617856, -0.0039383119968031599]}
    - {mu0: 0, rank: 3, ndensity: 2, num_ms_combs: 4, mus: [0, 0, 0], ns: [2, 2, 4], ls: [1, 1, 2], ms_combs: [-1, 1, 0, 0, 0, 0, 0, 1, -1, 1, 1, -2], ctildes: [-0.016374966818761078, 0.059039780528190276, -0.016374966818761074, 0.059039780528190269, 0.056724549004697394, -0.20451979908508253, -0.040110313260970157, 0.14461733681997213]}
    - {mu0: 0, rank: 3, ndensity: 2, num_ms_combs: 5, mus: [0, 0, 0], ns: [2, 2, 4], ls: [1, 2, 1], ms_combs: [0, 0, 0, 0, 1, -1, 1, -2, 1, 1, -1, 0, 1, 0, -1], ctildes: [0.0044167435639273526, -0.072444769054438099, -0.0076500242567250137, 0.12547802074488035, 0.010818768056343669, -0.17745271871714233, -0.0076500242567250137, 0.12547802074488035, 0.0044167435639273526, -0.072444769054438099]}
    - {mu0: 0, rank: 3, ndensity: 2, num_ms_combs: 3, mus: [0, 0, 0], ns: [2, 2, 4], ls: [2, 2, 0], ms_combs: [0, 0, 0, 1, -1, 0, 2, -2, 0], ctildes: [0.075819928894210742, 0.023940547179020905, -0.15163985778842151, -0.047881094358041817, 0.15163985778842154, 0.047881094358041824]}
    - {mu0: 0, rank: 3, ndensity: 2, num_ms_combs: 8, mus: [0, 0, 0], ns: [2, 2, 4], ls: [2, 2, 2], ms_combs: [-2, 1, 1, -2, 2, 0, -1, 1, 0, -1, 2, -1, 0, 0, 0, 0, 1, -1, 0, 2, -2, 1, 1, -2], ctildes: [0.022167814450496884, -0.050248219389523043, -0.018099944705470938, 0.041027499329251822, -0.0090499723527354692, 0.020513749664625911, 0.022167814450496884, -0.050248219389523043, 0.0090499723527354692, -0.020513749664625911, -0.018099944705470938, 0.041027499329251822, -0.036199889410941898, 0.0820549986585037, 0.022167814450496884, -0.050248219389523043]}
    - {mu0: 0, rank: 3, ndensity: 2, num_ms_combs: 1, mus: [0, 0, 0], ns: [2, 3, 3], ls: [0, 0, 0], ms_combs: [0, 0, 0], ctildes: [-0.017379491573236504, -0.049761989411508514]}
    - {mu0: 0, rank: 3, ndensity: 2, num_ms_combs: 2, mus: [0, 0, 0], ns: [2, 3, 3], ls: [0, 1, 1], ms_combs: [0, 0, 0, 0, 1, -1], ctildes: [0.027995918961293265, 0.0014930817201728802, -0.055991837922586524, -0.0029861634403457599]}
    - {mu0: 0, rank: 3, ndensity: 2, num_ms_combs: 3, mus: [0, 0, 0], ns: [2, 3, 3], ls: [0, 2, 2], ms_combs: [0, 0, 0, 0, 1, -1, 0, 2, -2], ctildes: [-0.01938613083210549, 0.013301998115222121, 0.038772261664210987, -0.026603996230444245, -0.038772261664210994, 0.026603996230444252]}
    - {mu0: 0, rank: 3, ndensity: 2, num_ms_combs: 2, mus: [0, 0, 0], ns: [2, 3, 3], ls: [1, 0, 1], ms_combs: [0, 0, 0, 1, 0, -1], ctildes: [-0.023706216634465937, 0.0086050833810793551, 0.047412433268931867, -0.017210166762158707]}
    - {mu0: 0, rank: 3, ndensity: 2, num_ms_combs: 5, mus: [0, 0, 0], ns: [2, 3, 3], ls: [1, 1, 2], ms_combs: [0, 0, 0, 0, 1, -1, 1, -1, 0, 1, 0, -1, 1, 1, -2], ctildes: [-0.049474501781004529, 0.11197028935100978, 0.085692350763856784, -0.19393823009413738, -0.049474501781004543, 0.11197028935100979, 0.085692350763856784, -0.19393823009413738, -0.12118728464187872, 0.27427007526176306]}
    - {mu0: 0, rank: 3, ndensity: 2, num_ms_combs: 3, mus: [0, 0, 0], ns: [2, 3, 3], ls: [2, 0, 2], ms_combs: [0, 0, 0, 1, 0, -1, 2, 0, -2], ctildes: [-0.17917616095910616, -0.0073334173525378115, 0.35835232191821237, 0.014666834705075625, -0.35835232191821242, -0.014666834705075628]}
    - {mu0: 0, rank: 3, ndensity: 2, num_ms_combs: 4, mus: [0, 0, 0], ns: [2, 3, 3], ls: [2, 1, 1], ms_combs: [0, -1, 1, 0, 0, 0, 1, -1, 0, 2, -1, -1], ctildes: [-0.0080879049761483617, 0.082256423790882577, -0.0080879049761483635, 0.082256423790882591, 0.028017324690956229, -0.28494461050945202, -0.019811240279680439, 0.20148626635379305]}
    - {mu0: 0, rank: 3, ndensity: 2, num_ms_combs: 7, mus: [0, 0, 0], ns: [2, 3, 3], ls: [2, 2, 2], ms_combs: [0, -2, 2, 0, -1, 1, 0, 0, 0, 1, -2, 1, 1, -1, 0, 2, -2, 0, 2, -1, -1], ctildes: [-0.0057917889972324867, -0.029700610956227651, -0.0028958944986162416, -0.014850305478113817, 0.0028958944986162416, 0.014850305478113817, 0.014186927741085441, 0.072751341891673288, -0.0057917889972324832, -0.029700610956227634, -0.01158357799446497, -0.059401221912455282, 0.0070934638705427207, 0.036375670945836644]}
    - {mu0: 0, rank: 3, ndensity: 2, num_ms_combs: 1, mus: [0, 0, 0], ns: [2, 3, 4], ls: [0, 0, 0], ms_combs: [0, 0, 0], ctildes: [-0.053854625822159066, 0.055036241372219151]}
    - {mu0: 0, rank: 3, ndensity: 2, num_ms_combs: 2, mus: [0, 0, 0], ns: [2, 3, 4], ls: [0, 1, 1], ms_combs: [0, 0, 0, 0, 1, -1], ctildes: [-0.018052733639939877, -0.15869089879795664, 0.036105467279879747, 0.31738179759591317]}
    - {mu0: 0, rank: 3, ndensity: 2, num_ms_combs: 3, mus: [0, 0, 0], ns: [2, 3, 4], ls: [0, 2, 2], ms_combs: [0, 0, 0, 0, 1, -1, 0, 2, -2], ctildes: [0.03832214569241181, -0.098421564572011996, -0.076644291384823635, 0.19684312914402399, 0.076644291384823648, -0.19684312914402405]}
    - {mu0: 0, rank: 3, ndensity: 2, num_ms_combs: 2, mus: [0, 0, 0], ns: [2, 3, 4], ls: [1, 0, 1], ms_combs: [0, 0, 0, 1, 0, -1], ctildes: [-0.006890214216761943, 0.039191047305993362, 0.013780428433523884, -0.078382094611986697]}
    - {mu0: 0, rank: 3, ndensity: 2, num_ms_combs: 2, mus: [0, 0, 0], ns: [2, 3, 4], ls: [1, 1, 0], ms_combs: [0, 0, 0, 1, -1, 0], ctildes: [0.1216330694757026, 0.067135024241595856, -0.24326613895140514, -0.13427004848319168]}
    - {mu0: 0, rank: 3, ndensity: 2, num_ms_combs: 5, mus: [0, 0, 0], ns: [2, 3, 4], ls: [1, 1, 2], ms_combs: [0, 0, 0, 0, 1, -1, 1, -1, 0, 1, 0, -1, 1, 1, -2], ctildes: [-0.050712237222126831, 0.041294887449335266, 0.087836171434209284, -0.071524843155087073, -0.050712237222126845, 0.041294887449335273, 0.087836171434209284, -0.071524843155087073, -0.12421910490918701, 0.10115140323653257]}
    - {mu0: 0, rank: 3, ndensity: 2, num_ms_combs: 5, mus: [0, 0, 0], ns: [2, 3, 4], ls: [1, 2, 1], ms_combs: [0, 0, 0, 0, 1, -1, 1, -2, 1, 1, -1, 0, 1, 0, -1], ctildes: [-0.021208334311574241, -0.011121674366801844, 0.036733912571552896, 0.019263305068537215, -0.051949597357717633, -0.027242427284055709, 0.036733912571552896, 0.019263305068537215, -0.021208334311574237, -0.011121674366801842]}
    - {mu0: 0, rank: 3, ndensity: 2, num_ms_combs: 3, mus: [0, 0, 0], ns: [2, 3, 4], ls: [2, 0, 2], ms_combs: [0, 0, 0, 1, 0, -1, 2, 0, -2], ctildes: [-0.0061518161620668635, 0.0042773962716915288, 0.012303632324133729, -0.0085547925433830593, -0.012303632324133732, 0.0085547925433830611]}
    - {mu0: 0, rank: 3, ndensity: 2, num_ms_combs: 5, mus: [0, 0, 0], ns: [2, 3, 4], ls: [2, 1, 1], ms_combs: [0, 0, 0, 0, 1, -1, 1, -1, 0, 1, 0, -1, 2, -1, -1], ctildes: [0.048766207860889615, 0.015535124941425907, 0.048766207860889609, 0.015535124941425903, -0.084465549707525595, -0.026907625700480151, -0.084465549707525595, -0.026907625700480151, 0.11945232594968148, 0.038053129196877873]}
    - {mu0: 0, rank: 3, ndensity: 2, num_ms_combs: 3, mus: [0, 0, 0], ns: [2, 3, 4], ls: [2, 2, 0], ms_combs: [0, 0, 0, 1, -1, 0, 2, -2, 0], ctildes: [-0.08079831348671894, 0.0017867264672603309, 0.16159662697343788, -0.0035734529345206622, -0.16159662697343793, 0.0035734529345206631]}
    - {mu0: 0, rank: 3, ndensity: 2, num_ms_combs: 10, mus: [0, 0, 0], ns: [2, 3, 4], ls: [2, 2, 2], ms_combs: [0, 0, 0, 0, 1, -1, 0, 2, -2, 1, -2, 1, 1, -1, 0, 1, 0, -1, 1, 1, -2, 2, -2, 0, 2, -1, -1, 2, 0, -2], ctildes: [0.0077015184125076115, -0.0098778389491420027, -0.0077015184125076115, 0.0098778389491420027, -0.015403036825015232, 0.019755677898284019, 0.018864790355293183, -0.024195665186787511, -0.0077015184125076115, 0.0098778389491420027, -0.0077015184125076115, 0.0098778389491420027, 0.018864790355293183, -0.024195665186787511, -0.015403036825015223, 0.019755677898284005, 0.018864790355293183, -0.024195665186787511, -0.015403036825015232, 0.019755677898284019]}
    - {mu0: 0, rank: 3, ndensity: 2, num_ms_combs: 1, mus: [0, 0, 0], ns: [2, 4, 4], ls: [0, 0, 0], ms_combs: [0, 0, 0], ctildes: [0.072520989828000273, -0.089468796000288092]}
    - {mu0: 0, rank: 3, ndensity: 2, num_ms_combs: 2, mus: [0, 0, 0], ns: [2, 4, 4], ls: [0, 1, 1], ms_combs: [0, 0, 0, 0, 1, -1], ctildes: [0.0087491169278917195, 0.10577668690319952, -0.017498233855783436, -0.21155337380639899]}
    - {mu0: 0, rank: 3, ndensity: 2, num_ms_combs: 3, mus: [0, 0, 0], ns: [2, 4, 4], ls: [0, 2, 2], ms_combs: [0, 0, 0, 0, 1, -1, 0, 2, -2], ctildes: [-0.022386408811050782, 0.027033182533093319, 0.044772817622101571, -0.054066365066186645, -0.044772817622101585, 0.054066365066186658]}
    - {mu0: 0, rank: 3, ndensity: 2, num_ms_combs: 2, mus: [0, 0, 0], ns: [2, 4, 4], ls: [1, 0, 1], ms_combs: [0, 0, 0, 1, 0, -1], ctildes: [-0.042466229017678131, 0.048129968487322344, 0.084932458035356248, -0.096259936974644675]}
    - {mu0: 0, rank: 3, ndensity: 2, num_ms_combs: 5, mus: [0, 0, 0], ns: [2, 4, 4], ls: [1, 1, 2], ms_combs: [0, 0, 0, 0, 1, -1, 1, -1, 0, 1, 0, -1, 1, 1, -2], ctildes: [-0.00057416885294093013, 0.066437023187573579, 0.00099448962541723415, -0.11507229966450908, -0.00057416885294093024, 0.066437023187573593, 0.00099448962541723415, -0.11507229966450908, -0.001406420715904392, 0.16273680683900971]}
    - {mu0: 0, rank: 3, ndensity: 2, num_ms_combs: 3, mus: [0, 0, 0], ns: [2, 4, 4], ls: [2, 0, 2], ms_combs: [0, 0, 0, 1, 0, -1, 2, 0, -2], ctildes: [0.064610495074987617, 0.081566420044270116, -0.12922099014997523, -0.16313284008854026, 0.12922099014997529, 0.16313284008854029]}
    - {mu0: 0, rank: 3, ndensity: 2, num_ms_combs: 4, mus: [0, 0, 0], ns: [2, 4, 4], ls: [2, 1, 1], ms_combs: [0, -1, 1, 0, 0, 0, 1, -1, 0, 2, -1, -1], ctildes: [-0.013501260616266567, -0.0097712568455546288, -0.013501260616266568, -0.0097712568455546288, 0.046769738707204779, 0.033848626620611638, -0.033071199394187449, -0.023934593417285977]}
    - {mu0: 0, rank: 3, ndensity: 2, num_ms_combs: 7, mus: [0, 0, 0], ns: [2, 4, 4], ls: [2, 2, 2], ms_combs: [0, -2, 2, 0, -1, 1, 0, 0, 0, 1, -2, 1, 1, -1, 0, 2, -2, 0, 2, -1, -1], ctildes: [0.040470114485054727, -0.01130531503359378, 0.020235057242527353, -0.0056526575167968867, -0.020235057242527353, 0.0056526575167968867, -0.099131130320402439, 0.027692253213720416, 0.040470114485054706, -0.011305315033593773, 0.080940228970109426, -0.022610630067187554, -0.049565565160201219, 0.013846126606860208]}
    - {mu0: 0, rank: 3, ndensity: 2, num_ms_combs: 1, mus: [0, 0, 0], ns: [3, 3, 3], ls: [0, 0, 0], ms_combs: [0, 0, 0], ctildes: [0.20778603567788656, -0.10051969670329222]}
    - {mu0: 0, rank: 3, ndensity: 2, num_ms_combs: 2, mus: [0, 0, 0], ns: [3, 3, 3], ls: [0, 1, 1], ms_combs: [0, 0, 0, 0, 1, -1], ctildes: [-0.039595516448360381, 0.033238587004585061, 0.079191032896720748, -0.066477174009170109]}
    - {mu0: 0, rank: 3, ndensity: 2, num_ms_combs: 3, mus: [0, 0, 0], ns: [3, 3, 3], ls: [0, 2, 2], ms_combs: [0, 0, 0, 0, 1, -1, 0, 2, -2], ctildes: [0.070231309866379751, 0.06383549317300545, -0.14046261973275953, -0.12767098634601093, 0.14046261973275956, 0.12767098634601096]}
    - {mu0: 0, rank: 3, ndensity: 2, num_ms_combs: 4, mus: [0, 0, 0], ns: [3, 3, 3], ls: [1, 1, 2], ms_combs: [-1, 1, 0, 0, 0, 0, 0, 1, -1, 1, 1, -2], ctildes: [-0.076351989672211878, 0.069080162480963422, -0.076351989672211865, 0.069080162480963409, 0.26449105074249035, -0.23930070242428395, -0.1870234155431702, 0.16921114942691529]}
    - {mu0: 0, rank: 3, ndensity: 2, num_ms_combs: 5, mus: [0, 0, 0], ns: [3, 3, 3], ls: [2, 2, 2], ms_combs: [-2, 0, 2, -2, 1, 1, -1, -1, 2, -1, 0, 1, 0, 0, 0], ctildes: [0.21811509230491119, -0.040067221132694661, -0.17809022711569533, 0.032714749062120317, -0.089045113557847666, 0.016357374531060159, 0.10905754615245557, -0.020033610566347324, -0.036352515384151851, 0.0066778701887824409]}
    - {mu0: 0, rank: 3, ndensity: 2, num_ms_combs: 1, mus: [0, 0, 0], ns: [3, 3, 4], ls: [0, 0, 0], ms_combs: [0, 0, 0], ctildes: [0.12002262817429155, -0.19769518877031322]}
    - {mu0: 0, rank: 3, ndensity: 2, num_ms_combs: 2, mus: [0, 0, 0], ns: [3, 3, 4], ls: [0, 1, 1], ms_combs: [0, 0, 0, 0, 1, -1], ctildes: [0.030678717420108526, 0.037757892799137445, -0.061357434840217037, -0.075515785598274876]}
    - {mu0: 0, rank: 3, ndensity: 2, num_ms_combs: 3, mus: [0, 0, 0], ns: [3, 3, 4], ls: [0, 2, 2], ms_combs: [0, 0, 0, 0, 1, -1, 0, 2, -2], ctildes: [0.073813762578375311, -0.0371588619973919, -0.14762752515675065, 0.074317723994783813, 0.14762752515675068, -0.074317723994783827]}
    - {mu0: 0, rank: 3, ndensity: 2, num_ms_combs: 2, mus: [0, 0, 0], ns: [3, 3, 4], ls: [1, 1, 0], ms_combs: [0, 0, 0, 1, -1, 0], ctildes: [-0.066002422049739454, -0.17534649158307686, 0.13200484409947888, 0.35069298316615366]}
    - {mu0: 0, rank: 3, ndensity: 2, num_ms_combs: 4, mus: [0, 0, 0], ns: [3, 3, 4], ls: [1, 1, 2], ms_combs: [-1, 1, 0, 0, 0, 0, 0, 1, -1, 1, 1, -2], ctildes: [0.01709925656098818, 0.027342151725889108, 0.017099256560988176, 0.027342151725889104, -0.059233562270574004, -0.094715991954994014, 0.041884453555358511, 0.066974320198186763]}
    - {mu0: 0, rank: 3, ndensity: 2, num_ms_combs: 5, mus: [0, 0, 0], ns: [3, 3, 4], ls: [1, 2, 1], ms_combs: [0, 0, 0, 0, 1, -1, 1, -2, 1, 1, -1, 0, 1, 0, -1], ctildes: [0.021678866535482035, 0.0078523426690036494, -0.037548898289959567, -0.013600656461155325, 0.053102161213828734, 0.019234232824543122, -0.037548898289959567, -0.013600656461155325, 0.021678866535482032, 0.0078523426690036476]}
    - {mu0: 0, rank: 3, ndensity: 2, num_ms_combs: 3, mus: [0, 0, 0], ns: [3, 3, 4], ls: [2, 2, 0], ms_combs: [0, 0, 0, 1, -1, 0, 2, -2, 0], ctildes: [0.011611073721855891, -0.055593196405581906, -0.023222147443711781, 0.11118639281116383, 0.023222147443711788, -0.11118639281116385]}
    - {mu0: 0, rank: 3, ndensity: 2, num_ms_combs: 8, mus: [0, 0, 0], ns: [3, 3, 4], ls: [2, 2, 2], ms_combs: [-2, 1, 1, -2, 2, 0, -1, 1, 0, -1, 2, -1, 0, 0, 0, 0, 1, -1, 0, 2, -2, 1, 1, -2], ctildes: [0.050630019163770044, 0.040338410492390286, -0.041339237539523475, -0.032936174247095766, -0.020669618769761738, -0.016468087123547883, 0.050630019163770044, 0.040338410492390286, 0.020669618769761738, 0.016468087123547883, -0.041339237539523475, -0.032936174247095766, -0.082678475079046992, -0.065872348494191574, 0.050630019163770044, 0.040338410492390286]}
    - {mu0: 0, rank: 3, ndensity: 2, num_ms_combs: 1, mus: [0, 0, 0], ns: [3, 4, 4], ls: [0, 0, 0], ms_combs: [0, 0, 0], ctildes: [-0.091813183421036879, 0.21052123050949981]}
    - {mu0: 0, rank: 3, ndensity: 2, num_ms_combs: 2, mus: [0, 0, 0], ns: [3, 4, 4], ls: [0, 1, 1], ms_combs: [0, 0, 0, 0, 1, -1], ctildes: [-0.0097228494956869051, -0.056370799191081705, 0.019445698991373807, 0.1127415983821634]}
    - {mu0: 0, rank: 3, ndensity: 2, num_ms_combs: 3, mus: [0, 0, 0], ns: [3, 4, 4], ls: [0, 2, 2], ms_combs: [0, 0, 0, 0, 1, -1, 0, 2, -2], ctildes: [-0.0058694021388193164, -0.0002987351071287617, 0.011738804277638635, 0.00059747021425752352, -0.011738804277638636, -0.00059747021425752363]}
    - {mu0: 0, rank: 3, ndensity: 2, num_ms_combs: 2, mus: [0, 0, 0], ns: [3, 4, 4], ls: [1, 0, 1], ms_combs: [0, 0, 0, 1, 0, -1], ctildes: [0.1005654595501116, -0.052722609393699021, -0.20113091910022318, 0.10544521878739803]}
    - {mu0: 0, rank: 3, ndensity: 2, num_ms_combs: 5, mus: [0, 0, 0], ns: [3, 4, 4], ls: [1, 1, 2], ms_combs: [0, 0, 0, 0, 1, -1, 1, -1, 0, 1, 0, -1, 1, 1, -2], ctildes: [0.029611442990650893, -0.10029653144657411, -0.051288523745236667, 0.17371868828839604, 0.029611442990650896, -0.10029653144657412, -0.051288523745236667, 0.17371868828839604, 0.072532925874608231, -0.24567532501511385]}
    - {mu0: 0, rank: 3, ndensity: 2, num_ms_combs: 3, mus: [0, 0, 0], ns: [3, 4, 4], ls: [2, 0, 2], ms_combs: [0, 0, 0, 1, 0, -1, 2, 0, -2], ctildes: [-0.098928644363020207, 0.0049687614007786181, 0.19785728872604044, -0.0099375228015572362, -0.19785728872604047, 0.0099375228015572397]}
    - {mu0: 0, rank: 3, ndensity: 2, num_ms_combs: 4, mus: [0, 0, 0], ns: [3, 4, 4], ls: [2, 1, 1], ms_combs: [0, -1, 1, 0, 0, 0, 1, -1, 0, 2, -1, -1], ctildes: [0.0066644422170957819, 0.0055573793967974615, 0.0066644422170957828, 0.0055573793967974624, -0.023086305048233741, -0.019251326944379372, 0.016324482852147302, 0.013612743829209949]}
    - {mu0: 0, rank: 3, ndensity: 2, num_ms_combs: 7, mus: [0, 0, 0], ns: [3, 4, 4], ls: [2, 2, 2], ms_combs: [0, -2, 2, 0, -1, 1, 0, 0, 0, 1, -2, 1, 1, -1, 0, 2, -2, 0, 2, -1, -1], ctildes: [-0.019538540274384956, -0.016016206415466309, -0.0097692701371924727, -0.0080081032077331509, 0.0097692701371924727, 0.0080081032077331509, 0.047859453991061958, 0.039231533332982849, -0.019538540274384945, -0.016016206415466302, -0.039077080548769898, -0.032032412830932611, 0.023929726995530979, 0.019615766666491424]}
    - {mu0: 0, rank: 3, ndensity: 2, num_ms_combs: 1, mus: [0, 0, 0], ns: [4, 4, 4], ls: [0, 0, 0], ms_combs: [0, 0, 0], ctildes: [0.032454570643134895, -0.060378924690955474]}
    - {mu0: 0, rank: 3, ndensity: 2, num_ms_combs: 2, mus: [0, 0, 0], ns: [4, 4, 4], ls: [0, 1, 1], ms_combs: [0, 0, 0, 0, 1, -1], ctildes: [-0.041825251500297797, 0.079807095795412425, 0.083650503000595566, -0.15961419159082482]}
    - {mu0: 0, rank: 3, ndensity: 2, num_ms_combs: 3, mus: [0, 0, 0], ns: [4, 4, 4], ls: [0, 2, 2], ms_combs: [0, 0, 0, 0, 1, -1, 0, 2, -2], ctildes: [0.011378004966064142, 0.027040951337536687, -0.022756009932128288, -0.05408190267507338, 0.022756009932128292, 0.054081902675073394]}
    - {mu0: 0, rank: 3, ndensity: 2, num_ms_combs: 4, mus: [0, 0, 0], ns: [4, 4, 4], ls: [1, 1, 2], ms_combs: [-1, 1, 0, 0, 0, 0, 0, 1, -1, 1, 1, -2], ctildes: [-0.011462850234982008, 0.028944032053874767, -0.011462850234982006, 0.02894403205387476, 0.039708478013083366, -0.10026506818642653, -0.028078134073648179, 0.070898109630753783]}
    - {mu0: 0, rank: 3, ndensity: 2, num_ms_combs: 5, mus: [0, 0, 0], ns: [4, 4, 4], ls: [2, 2, 2], ms_combs: [-2, 0, 2, -2, 1, 1, -1, -1, 2, -1, 0, 1, 0, 0, 0], ctildes: [0.050921567414495057, -0.0046090388950403328, -0.041577285689415919, 0.0037632644991633358, -0.020788642844707959, 0.0018816322495816679, 0.025460783707247522, -0.0023045194475201656, -0.00848692790241584, 0.00076817314917338852]}
    - {mu0: 0, rank: 4, ndensity: 2, num_ms_combs: 1, mus: [0, 0, 0, 0], ns: [1, 1, 1, 1], ls: [0, 0, 0, 0], ms_combs: [0, 0, 0, 0], ctildes: [0.0196063634603383, -0.16874457694262754]}
    - {mu0: 0, rank: 4, ndensity: 2, num_ms_combs: 2, mus: [0, 0, 0, 0], ns: [1, 1, 1, 1], ls: [0, 0, 1, 1], ms_combs: [0, 0, 0, 0, 0, 0, 1, -1], ctildes: [-0.088146146892667934, -0.049285503965574025, 0.17629229378533584, 0.098571007931148022]}
    - {mu0: 0, rank: 4, ndensity: 2, num_ms_combs: 3, mus: [0, 0, 0, 0], ns: [1, 1, 1, 1], ls: [0, 0, 2, 2], ms_combs: [0, 0, 0, 0, 0, 0, 1, -1, 0, 0, 2, -2], ctildes: [0.040460925338391296, -0.013560729095132104, -0.080921850676782606, 0.027121458190264212, 0.080921850676782633, -0.027121458190264219]}
    - {mu0: 0, rank: 4, ndensity: 2, num_ms_combs: 4, mus: [0, 0, 0, 0], ns: [1, 1, 1, 1], ls: [0, 1, 1, 2], ms_combs: [0, -1, 1, 0, 0, 0, 0, 0, 0, 0, 1, -1, 0, 1, 1, -2], ctildes: [-0.044782119075865032, -0.0022833333379443247, -0.044782119075865039, -0.0022833333379443251, 0.15512981101999535, 0.0079096987038708173, -0.1096933413364263, -0.0055930015906495]}
    - {mu0: 0, rank: 4, ndensity: 2, num_ms_combs: 5, mus: [0, 0, 0, 0], ns: [1, 1, 1, 1], ls: [0, 2, 2, 2], ms_combs: [0, -2, 0, 2, 0, -2, 1, 1, 0, -1, -1, 2, 0, -1, 0, 1, 0, 0, 0, 0], ctildes: [-0.094472677117524939, 0.12860129561822978, 0.07713661785754812, -0.10500251817516036, 0.03856830892877406, -0.052501259087580181, -0.047236338558762456, 0.064300647809114875, 0.015745446186254151, -0.021433549269704956]}
    - {mu0: 0, rank: 4, ndensity: 2, num_ms_combs: 3, mus: [0, 0, 0, 0], ns: [1, 1, 1, 1], ls: [1, 1, 1, 1], ms_combs: [-1, -1, 1, 1, -1, 0, 0, 1, 0, 0, 0, 0], ctildes: [-0.11451417864968781, -0.14970234134014559, 0.11451417864968784, 0.14970234134014562, -0.02862854466242197, -0.037425585335036413]}
    - {mu0: 0, rank: 4, ndensity: 2, num_ms_combs: 10, mus: [0, 0, 0, 0], ns: [1, 1, 1, 1], ls: [1, 1, 2, 2], ms_combs: [-1, 1, -2, 2, -1, 1, -1, 1, -1, 1, 0, 0, 0, 0, -2, 2, 0, 0, -1, 1, 0, 0, 0, 0, 0, 1, -2, 1, 0, 1, -1, 0, 1, 1, -2, 0, 1, 1, -1, -1], ctildes: [0.070381004331256519, 0.01738148433009, -0.11502471304115437, 0.10456592441304743, 0.064952974638893476, -0.072607530330379949, -0.07983421087552614, 0.11325666657809244, 0.03519050216562826, 0.0086907421650449929, -0.010154632964497819, -0.024669939206378739, 0.12627147666434285, -0.34491935868160073, -0.051550114482565537, 0.14081273852965548, -0.072902871043129924, 0.19913928458353533, 0.044643708709897867, -0.12194740874313748]}
    - {mu0: 0, rank: 4, ndensity: 2, num_ms_combs: 6, mus: [0, 0, 0, 0], ns: [1, 1, 1, 1], ls: [2, 2, 2, 2], ms_combs: [-2, -2, 2, 2, -2, -1, 1, 2, -2, 0, 0, 2, -1, -1, 1, 1, -1, 0, 0, 1, 0, 0, 0, 0], ctildes: [0.0088081786936795477, -0.090706796737903758, -0.017616357387359092, 0.18141359347580746, 0.0088081786936795442, -0.09070679673790373, 0.0088081786936795425, -0.090706796737903717, -0.0088081786936795425, 0.090706796737903703, 0.0022020446734198852, -0.022676699184475922]}
    - {mu0: 0, rank: 4, ndensity: 2, num_ms_combs: 1, mus: [0, 0, 0, 0], ns: [1, 1, 1, 2], ls: [0, 0, 0, 0], ms_combs: [0, 0, 0, 0], ctildes: [-0.1246896145912208, 0.20586155094785971]}
    - {mu0: 0, rank: 4, ndensity: 2, num_ms_combs: 2, mus: [0, 0, 0, 0], ns: [1, 1, 1, 2], ls: [0, 0, 1, 1], ms_combs: [0, 0, 0, 0, 0, 0, 1, -1], ctildes: [-0.1108337062576593, -0.034559328999753398, 0.22166741251531855, 0.069118657999506783]}
    - {mu0: 0, rank: 4, ndensity: 2, num_ms_combs: 3, mus: [0, 0, 0, 0], ns: [1, 1, 1, 2], ls: [0, 0, 2, 2], ms_combs: [0, 0, 0, 0, 0, 0, 1, -1, 0, 0, 2, -2], ctildes: [-0.016747572145515269, -0.076552211207436299, 0.033495144291030544, 0.15310442241487263, -0.033495144291030551, -0.15310442241487265]}
    - {mu0: 0, rank: 4, ndensity: 2, num_ms_combs: 2, mus: [0, 0, 0, 0], ns: [1, 1, 1, 2], ls: [0, 1, 1, 0], ms_combs: [0, 0, 0, 0, 0, 1, -1, 0], ctildes: [0.071536888955448158, 0.043086041246873236, -0.14307377791089629, -0.086172082493746457]}
    - {mu0: 0, rank: 4, ndensity: 2, num_ms_combs: 4, mus: [0, 0, 0, 0], ns: [1, 1, 1, 2], ls: [0, 1, 1, 2], ms_combs: [0, -1, 1, 0, 0, 0, 0, 0, 0, 0, 1, -1, 0, 1, 1, -2], ctildes: [-0.020587149636666142, 0.03598672448239898, -0.020587149636666146, 0.035986724482398987, 0.071315978307457839, -0.12466167040299571, -0.050428011868156153, 0.088149112496000576]}
    - {mu0: 0, rank: 4, ndensity: 2, num_ms_combs: 5, mus: [0, 0, 0, 0], ns: [1, 1, 1, 2], ls: [0, 1, 2, 1], ms_combs: [0, 0, 0, 0, 0, 0, 1, -1, 0, 1, -2, 1, 0, 1, -1, 0, 0, 1, 0, -1], ctildes: [0.016319410451841425, 0.025951832621894957, -0.028266048052159917, -0.044949892650645494, 0.039974228510054152, 0.063568747813757556, -0.028266048052159917, -0.044949892650645494, 0.016319410451841421, 0.025951832621894953]}
    - {mu0: 0, rank: 4, ndensity: 2, num_ms_combs: 3, mus: [0, 0, 0, 0], ns: [1, 1, 1, 2], ls: [0, 2, 2, 0], ms_combs: [0, 0, 0, 0, 0, 1, -1, 0, 0, 2, -2, 0], ctildes: [-0.098724914567588334, 0.032517504055011186, 0.1974498291351767, -0.065035008110022385, -0.19744982913517675, 0.065035008110022399]}
    - {mu0: 0, rank: 4, ndensity: 2, num_ms_combs: 8, mus: [0, 0, 0, 0], ns: [1, 1, 1, 2], ls: [0, 2, 2, 2], ms_combs: [0, -2, 1, 1, 0, -2, 2, 0, 0, -1, 1, 0, 0, -1, 2, -1, 0, 0, 0, 0, 0, 0, 1, -1, 0, 0, 2, -2, 0, 1, 1, -2], ctildes: [-0.0045042726023756903, 0.090369993535603599, 0.003677723179406183, -0.073786790740281064, 0.0018388615897030904, -0.036893395370140511, -0.0045042726023756903, 0.090369993535603599, -0.0018388615897030904, 0.036893395370140511, 0.0036777231794061808, -0.073786790740281022, 0.0073554463588123634, -0.14757358148056207, -0.0045042726023756903, 0.090369993535603599]}
    - {mu0: 0, rank: 4, ndensity: 2, num_ms_combs: 5, mus: [0, 0, 0, 0], ns: [1, 1, 1, 2], ls: [1, 1, 1, 1], ms_combs: [0, 0, 0, 0, 0, 0, 1, -1, 1, -1, -1, 1, 1, -1, 0, 0, 1, -1, 1, -1], ctildes: [0.015443077703645657, -0.031747866101633763, -0.030886155407291303, 0.063495732203267513, 0.030886155407291296, -0.063495732203267499, -0.030886155407291303, 0.063495732203267513, 0.030886155407291296, -0.063495732203267499]}
    - {mu0: 0, rank: 4, ndensity: 2, num_ms_combs: 4, mus: [0, 0, 0, 0], ns: [1, 1, 1, 2], ls: [1, 1, 2, 0], ms_combs: [-1, 1, 0, 0, 0, 0, 0, 0, 0, 1, -1, 0, 1, 1, -2, 0], ctildes: [0.036041421112601689, -0.036540025609004628, 0.036041421112601689, -0.036540025609004621, -0.1248511450880235, 0.12657836172932788, 0.088283091330646948, -0.089504417930291513]}
    - {mu0: 0, rank: 4, ndensity: 2, num_ms_combs: 20, mus: [0, 0, 0, 0], ns: [1, 1, 1, 2], ls: [1, 1, 2, 2], ms_combs: [-1, 1, -2, 2, -1, 1, -1, 1, -1, 1, 0, 0, -1, 1, 1, -1, -1, 1, 2, -2, 0, 0, 0, 0, 0, 0, 1, -1, 0, 0, 2, -2, 0, 1, -2, 1, 0, 1, -1, 0, 0, 1, 0, -1, 0, 1, 1, -2, 1, -1, -2, 2, 1, -1, -1, 1, 1, -1, 0, 0, 1, -1, 1, -1, 1, -1, 2, -2, 1, 1, -2, 0, 1, 1, -1, -1, 1, 1, 0, -2], ctildes: [0.031052090741118851, -0.019887491077533476, 0.015526045370559426, -0.0099437455387667382, -0.031052090741118851, 0.019887491077533476, 0.015526045370559426, -0.0099437455387667382, 0.031052090741118851, -0.019887491077533476, 0.0014176193999202134, -0.030646166195996208, -0.033887329540959285, 0.081179823469525916, 0.12704360176431584, -0.14084229670212634, -0.13174286359839091, 0.084375478810265289, 0.053783798844856963, -0.034446144981360699, 0.053783798844856963, -0.034446144981360699, -0.13174286359839091, 0.084375478810265289, -0.064939420282078136, 0.10106731454705939, 0.064939420282078122, -0.10106731454705936, -0.064939420282078109, 0.10106731454705933, 0.064939420282078122, -0.10106731454705936, -0.064939420282078136, 0.10106731454705939, 0.076061777762343158, -0.048714205404110249, -0.093156272223356568, 0.059662473232600439, 0.076061777762343158, -0.048714205404110249]}
    - {mu0: 0, rank: 4, ndensity: 2, num_ms_combs: 13, mus: [0, 0, 0, 0], ns: [1, 1, 1, 2], ls: [1, 2, 2, 1], ms_combs: [0, -2, 1, 1, 0, -2, 2, 0, 0, -1, 1, 0, 0, -1, 2, -1, 0, 0, 0, 0, 0, 0, 1, -1, 1, -2, 0, 1, 1, -2, 1, 0, 1, -2, 2, -1, 1, -1, -1, 1, 1, -1, 0, 0, 1, -1, 1, -1, 1, 0, 0, -1], ctildes: [0.068242701583577967, 0.043460465860142655, 0.046200317015615208, -0.075901731276182674, -0.071355035564045544, 0.0072196755148580191, -0.032668557454709764, 0.053670628889187846, 0.039869970873427807, 0.0078371715361250944, -0.014523083525325511, -0.039653603382297675, -0.041077483377985197, -0.11215732740041802, 0.03557414412886821, 0.097131094749330502, -0.14271007112809106, 0.014439351029716056, 0.025154718548430322, 0.068682055761324648, -0.014523083525325515, -0.039653603382297668, 0.11755535257966077, -0.083121406791040714, -0.054585223198425306, 0.053007712689074463]}
    - {mu0: 0, rank: 4, ndensity: 2, num_ms_combs: 5, mus: [0, 0, 0, 0], ns: [1, 1, 1, 2], ls: [2, 2, 2, 0], ms_combs: [-2, 0, 2, 0, -2, 1, 1, 0, -1, -1, 2, 0, -1, 0, 1, 0, 0, 0, 0, 0], ctildes: [0.13928035633117056, -0.22460129617985855, -0.11372193473479611, 0.18338619040279003, -0.056860967367398055, 0.091693095201395014, 0.069640178165585251, -0.11230064808992925, -0.02321339272186175, 0.037433549363309747]}
    - {mu0: 0, rank: 4, ndensity: 2, num_ms_combs: 13, mus: [0, 0, 0, 0], ns: [1, 1, 1, 2], ls: [2, 2, 2, 2], ms_combs: [0, 0, 0, 0, 0, 0, 1, -1, 0, 0, 2, -2, 1, -1, -2, 2, 1, -1, -1, 1, 1, -1, 0, 0, 1, -1, 1, -1, 1, -1, 2, -2, 2, -2, -2, 2, 2, -2, -1, 1, 2, -2, 0, 0, 2, -2, 1, -1, 2, -2, 2, -2], ctildes: [0.062014329488654402, 0.042627661264824653, -0.12402865897730882, -0.085255322529649319, 0.12402865897730886, 0.085255322529649347, -0.12402865897730887, -0.085255322529649347, 0.12402865897730884, 0.085255322529649333, -0.12402865897730882, -0.085255322529649319, 0.12402865897730884, 0.085255322529649333, -0.12402865897730887, -0.085255322529649347, 0.1240286589773089, 0.085255322529649374, -0.12402865897730887, -0.085255322529649347, 0.12402865897730886, 0.085255322529649347, -0.12402865897730887, -0.085255322529649347, 0.1240286589773089, 0.085255322529649374]}
    - {mu0: 0, rank: 4, ndensity: 2, num_ms_combs: 1, mus: [0, 0, 0, 0], ns: [1, 1, 1, 3], ls: [0, 0, 0, 0], ms_combs: [0, 0, 0, 0], ctildes: [0.0087479129718228531, -0.11427472044368753]}
    - {mu0: 0, rank: 4, ndensity: 2, num_ms_combs: 2, mus: [0, 0, 0, 0], ns: [1, 1, 1, 3], ls: [0, 0, 1, 1], ms_combs: [0, 0, 0, 0, 0, 0, 1, -1], ctildes: [0.012058459330522693, 0.0014517051867932477, -0.024116918661045383, -0.002903410373586495]}
    - {mu0: 0, rank: 4, ndensity: 2, num_ms_combs: 3, mus: [0, 0, 0, 0], ns: [1, 1, 1, 3], ls: [0, 0, 2, 2], ms_combs: [0, 0, 0, 0, 0, 0, 1, -1, 0, 0, 2, -2], ctildes: [0.028750012167184962, 0.024252214388757871, -0.057500024334369931, -0.048504428777515748, 0.057500024334369945, 0.048504428777515755]}
    - {mu0: 0, rank: 4, ndensity: 2, num_ms_combs: 2, mus: [0, 0, 0, 0], ns: [1, 1, 1, 3], ls: [0, 1, 1, 0], ms_combs: [0, 0, 0, 0, 0, 1, -1, 0], ctildes: [0.037025426175230546, 0.03890453631627333, -0.074050852350461077, -0.077809072632546647]}
    - {mu0: 0, rank: 4, ndensity: 2, num_ms_combs: 4, mus: [0, 0, 0, 0], ns: [1, 1, 1, 3], ls: [0, 1, 1, 2], ms_combs: [0, -1, 1, 0, 0, 0, 0, 0, 0, 0, 1, -1, 0, 1, 1, -2], ctildes: [0.0055947156077235322, 0.0051091564216681007, 0.0055947156077235331, 0.0051091564216681016, -0.019380663372951495, -0.017698637012291903, 0.013704198494907747, 0.012514826249150819]}
    - {mu0: 0, rank: 4, ndensity: 2, num_ms_combs: 5, mus: [0, 0, 0, 0], ns: [1, 1, 1, 3], ls: [0, 1, 2, 1], ms_combs: [0, 0, 0, 0, 0, 0, 1, -1, 0, 1, -2, 1, 0, 1, -1, 0, 0, 1, 0, -1], ctildes: [0.029900836679706791, 0.019389438448206859, -0.051789768318071257, -0.033583492522523732, 0.073241792747576806, 0.047494230597208476, -0.051789768318071257, -0.033583492522523732, 0.029900836679706787, 0.019389438448206855]}
    - {mu0: 0, rank: 4, ndensity: 2, num_ms_combs: 3, mus: [0, 0, 0, 0], ns: [1, 1, 1, 3], ls: [0, 2, 2, 0], ms_combs: [0, 0, 0, 0, 0, 1, -1, 0, 0, 2, -2, 0], ctildes: [-0.028185792141686129, 0.042262344150173173, 0.056371584283372266, -0.084524688300346359, -0.056371584283372279, 0.084524688300346387]}
    - {mu0: 0, rank: 4, ndensity: 2, num_ms_combs: 8, mus: [0, 0, 0, 0], ns: [1, 1, 1, 3], ls: [0, 2, 2, 2], ms_combs: [0, -2, 1, 1, 0, -2, 2, 0, 0, -1, 1, 0, 0, -1, 2, -1, 0, 0, 0, 0, 0, 0, 1, -1, 0, 0, 2, -2, 0, 1, 1, -2], ctildes: [-0.0082034035703444762, -0.0092242120675302183, 0.0066980509671565672, 0.0075315376148906961, 0.0033490254835782814, 0.0037657688074453459, -0.0082034035703444762, -0.0092242120675302183, -0.0033490254835782814, -0.0037657688074453459, 0.0066980509671565628, 0.0075315376148906918, 0.013396101934313129, 0.015063075229781387, -0.0082034035703444762, -0.0092242120675302183]}
    - {mu0: 0, rank: 4, ndensity: 2, num_ms_combs: 5, mus: [0, 0, 0, 0], ns: [1, 1, 1, 3], ls: [1, 1, 1, 1], ms_combs: [0, 0, 0, 0, 0, 0, 1, -1, 1, -1, -1, 1, 1, -1, 0, 0, 1, -1, 1, -1], ctildes: [0.0086482181535296326, 0.029849953625757597, -0.017296436307059258, -0.059699907251515173, 0.017296436307059255, 0.059699907251515159, -0.017296436307059258, -0.059699907251515173, 0.017296436307059255, 0.059699907251515159]}
    - {mu0: 0, rank: 4, ndensity: 2, num_ms_combs: 4, mus: [0, 0, 0, 0], ns: [1, 1, 1, 3], ls: [1, 1, 2, 0], ms_combs: [-1, 1, 0, 0, 0, 0, 0, 0, 0, 1, -1, 0, 1, 1, -2, 0], ctildes: [-0.011484779307812484, 0.044195200265293715, -0.011484779307812481, 0.044195200265293708, 0.039784442549693891, -0.15309666462034049, -0.028131849112615175, 0.10825568973008537]}
    - {mu0: 0, rank: 4, ndensity: 2, num_ms_combs: 20, mus: [0, 0, 0, 0], ns: [1, 1, 1, 3], ls: [1, 1, 2, 2], ms_combs: [-1, 1, -2, 2, -1, 1, -1, 1, -1, 1, 0, 0, -1, 1, 1, -1, -1, 1, 2, -2, 0, 0, 0, 0, 0, 0, 1, -1, 0, 0, 2, -2, 0, 1, -2, 1, 0, 1, -1, 0, 0, 1, 0, -1, 0, 1, 1, -2, 1, -1, -2, 2, 1, -1, -1, 1, 1, -1, 0, 0, 1, -1, 1, -1, 1, -1, 2, -2, 1, 1, -2, 0, 1, 1, -1, -1, 1, 1, 0, -2], ctildes: [0.026260323304114663, -0.012511141099451591, 0.013130161652057331, -0.0062555705497257955, -0.026260323304114663, 0.012511141099451591, 0.013130161652057331, -0.0062555705497257955, 0.026260323304114663, -0.012511141099451591, -0.010919308374401849, 0.012666527848518717, -0.0044217065553109683, -0.012821914597585844, 0.083202676467654946, -0.024711508700768922, -0.11141311610694361, 0.05308027627082363, 0.045484214185911608, -0.021669932044913298, 0.045484214185911608, -0.021669932044913298, -0.11141311610694361, 0.05308027627082363, -0.030682029859425627, -0.00031077349813425539, 0.03068202985942562, 0.00031077349813425534, -0.030682029859425614, -0.00031077349813425523, 0.03068202985942562, 0.00031077349813425534, -0.030682029859425627, -0.00031077349813425539, 0.064324392575598952, -0.030645911793619741, -0.078780969912343998, 0.037533423298354782, 0.064324392575598952, -0.030645911793619741]}
    - {mu0: 0, rank: 4, ndensity: 2, num_ms_combs: 13, mus: [0, 0, 0, 0], ns: [1, 1, 1, 3], ls: [1, 2, 2, 1], ms_combs: [0, -2, 1, 1, 0, -2, 2, 0, 0, -1, 1, 0, 0, -1, 2, -1, 0, 0, 0, 0, 0, 0, 1, -1, 1, -2, 0, 1, 1, -2, 1, 0, 1, -2, 2, -1, 1, -1, -1, 1, 1, -1, 0, 0, 1, -1, 1, -1, 1, 0, 0, -1], ctildes: [0.090571011436313395, -0.12648668846306454, -0.015285673007277097, -0.064439832940709083, -0.056400539861903014, 0.12165951161241775, 0.010808603038445806, 0.045565842850903669, 0.040147972075814845, -0.070366368918160296, -0.041388054297205941, 0.03303579688405487, -0.11706309541468542, 0.093439343994466462, 0.1013796144747592, -0.080920845612160869, -0.112801079723806, 0.24331902322483548, 0.071686212869180102, -0.05721967867170865, -0.041388054297205941, 0.033035796884054877, 0.041114866854625898, -0.18609934455312685, -0.0086097312824495904, 0.083513059164611964]}
    - {mu0: 0, rank: 4, ndensity: 2, num_ms_combs: 5, mus: [0, 0, 0, 0], ns: [1, 1, 1, 3], ls: [2, 2, 2, 0], ms_combs: [-2, 0, 2, 0, -2, 1, 1, 0, -1, -1, 2, 0, -1, 0, 1, 0, 0, 0, 0, 0], ctildes: [-0.075043489910455466, -0.09513133276246151, 0.061272752932771186, 0.077674407939647583, 0.030636376466385593, 0.038837203969823791, -0.037521744955227726, -0.047565666381230741, 0.01250724831840924, 0.015855222127076914]}
    - {mu0: 0, rank: 4, ndensity: 2, num_ms_combs: 13, mus: [0, 0, 0, 0], ns: [1, 1, 1, 3], ls: [2, 2, 2, 2], ms_combs: [0, 0, 0, 0, 0, 0, 1, -1, 0, 0, 2, -2, 1, -1, -2, 2, 1, -1, -1, 1, 1, -1, 0, 0, 1, -1, 1, -1, 1, -1, 2, -2, 2, -2, -2, 2, 2, -2, -1, 1, 2, -2, 0, 0, 2, -2, 1, -1, 2, -2, 2, -2], ctildes: [0.023684574418338308, 0.012605131187178608, -0.047369148836676624, -0.025210262374357219, 0.047369148836676638, 0.025210262374357226, -0.047369148836676644, -0.02521026237435723, 0.047369148836676631, 0.025210262374357223, -0.047369148836676624, -0.025210262374357219, 0.047369148836676631, 0.025210262374357223, -0.047369148836676644, -0.02521026237435723, 0.047369148836676658, 0.025210262374357237, -0.047369148836676644, -0.02521026237435723, 0.047369148836676638, 0.025210262374357226, -0.047369148836676644, -0.02521026237435723, 0.047369148836676658, 0.025210262374357237]}
    - {mu0: 0, rank: 4, ndensity: 2, num_ms_combs: 1, mus: [0, 0, 0, 0], ns: [1, 1, 2, 2], ls: [0, 0, 0, 0], ms_combs: [0, 0, 0, 0], ctildes: [0.069308641834366469, -0.052888584436236202]}
    - {mu0: 0, rank: 4, ndensity: 2, num_ms_combs: 2, mus: [0, 0, 0, 0], ns: [1, 1, 2, 2], ls: [0, 0, 1, 1], ms_combs: [0, 0, 0, 0, 0, 0, 1, -1], ctildes: [0.10508116886573947, -0.054160580559029212, -0.21016233773147888, 0.1083211611180584]}
    - {mu0: 0, rank: 4, ndensity: 2, num_ms_combs: 3, mus: [0, 0, 0, 0], ns: [1, 1, 2, 2], ls: [0, 0, 2, 2], ms_combs: [0, 0, 0, 0, 0, 0, 1, -1, 0, 0, 2, -2], ctildes: [0.018628778374027946, 0.01096799881166036, -0.037257556748055892, -0.021935997623320724, 0.037257556748055906, 0.021935997623320731]}
    - {mu0: 0, rank: 4, ndensity: 2, num_ms_combs: 2, mus: [0, 0, 0, 0], ns: [1, 1, 2, 2], ls: [0, 1, 0, 1], ms_combs: [0, 0, 0, 0, 0, 1, 0, -1], ctildes: [-0.11130779054518762, -0.060131360998473347, 0.22261558109037519, 0.12026272199694667]}
    - {mu0: 0, rank: 4, ndensity: 2, num_ms_combs: 5, mus: [0, 0, 0, 0], ns: [1, 1, 2, 2], ls: [0, 1, 1, 2], ms_combs: [0, 0, 0, 0, 0, 0, 1, -1, 0, 1, -1, 0, 0, 1, 0, -1, 0, 1, 1, -2], ctildes: [0.0040579674811299709, -0.0025888875361618508, -0.0070286058527794099, 0.0044840847477141347, 0.0040579674811299709, -0.0025888875361618504, -0.0070286058527794099, 0.0044840847477141347, 0.0099399497215755545, -0.0063414534650476674]}
    - {mu0: 0, rank: 4, ndensity: 2, num_ms_combs: 3, mus: [0, 0, 0, 0], ns: [1, 1, 2, 2], ls: [0, 2, 0, 2], ms_combs: [0, 0, 0, 0, 0, 1, 0, -1, 0, 2, 0, -2], ctildes: [0.040654345204598569, 0.13074792460038157, -0.081308690409197151, -0.26149584920076319, 0.081308690409197165, 0.26149584920076324]}
    - {mu0: 0, rank: 4, ndensity: 2, num_ms_combs: 4, mus: [0, 0, 0, 0], ns: [1, 1, 2, 2], ls: [0, 2, 1, 1], ms_combs: [0, 0, -1, 1, 0, 0, 0, 0, 0, 1, -1, 0, 0, 2, -1, -1], ctildes: [-0.016488353027890687, -0.041412691237605, -0.016488353027890687, -0.041412691237604993, 0.057117330354877628, 0.14345777060338863, -0.040388051617206211, -0.10143996240756027]}
    - {mu0: 0, rank: 4, ndensity: 2, num_ms_combs: 7, mus: [0, 0, 0, 0], ns: [1, 1, 2, 2], ls: [0, 2, 2, 2], ms_combs: [0, 0, -2, 2, 0, 0, -1, 1, 0, 0, 0, 0, 0, 1, -2, 1, 0, 1, -1, 0, 0, 2, -2, 0, 0, 2, -1, -1], ctildes: [0.013899753421379417, -0.069072213224930526, 0.0069498767106897083, -0.034536106612465263, -0.0069498767106897083, 0.034536106612465263, -0.034047303432884278, 0.16919167780579997, 0.013899753421379417, -0.069072213224930526, 0.027799506842758847, -0.13814442644986114, -0.017023651716442139, 0.084595838902899984]}
    - {mu0: 0, rank: 4, ndensity: 2, num_ms_combs: 2, mus: [0, 0, 0, 0], ns: [1, 1, 2, 2], ls: [1, 1, 0, 0], ms_combs: [0, 0, 0, 0, 1, -1, 0, 0], ctildes: [0.00731434202463841, -0.061872438135806875, -0.014628684049276818, 0.12374487627161372]}
    - {mu0: 0, rank: 4, ndensity: 2, num_ms_combs: 4, mus: [0, 0, 0, 0], ns: [1, 1, 2, 2], ls: [1, 1, 0, 2], ms_combs: [-1, 1, 0, 0, 0, 0, 0, 0, 0, 1, 0, -1, 1, 1, 0, -2], ctildes: [0.050656085028026175, -0.038620231768329016, 0.050656085028026168, -0.038620231768329009, -0.17547782596214093, 0.13378440724566298, 0.12408156068570267, -0.094599861580430988]}
    - {mu0: 0, rank: 4, ndensity: 2, num_ms_combs: 6, mus: [0, 0, 0, 0], ns: [1, 1, 2, 2], ls: [1, 1, 1, 1], ms_combs: [-1, 1, -1, 1, -1, 1, 0, 0, 0, 0, -1, 1, 0, 0, 0, 0, 0, 1, -1, 0, 1, 1, -1, -1], ctildes: [0.10234104689224251, -0.25385991041476258, 0.048184632557839849, 0.17442526252982221, 0.048184632557839849, 0.17442526252982221, 0.075262839725041164, -0.039717323942470233, -0.39742062401584455, -0.18998122928976369, 0.19871031200792227, 0.094990614644881843]}
    - {mu0: 0, rank: 4, ndensity: 2, num_ms_combs: 10, mus: [0, 0, 0, 0], ns: [1, 1, 2, 2], ls: [1, 1, 2, 2], ms_combs: [-1, 1, -2, 2, -1, 1, -1, 1, -1, 1, 0, 0, 0, 0, -2, 2, 0, 0, -1, 1, 0, 0, 0, 0, 0, 1, -2, 1, 0, 1, -1, 0, 1, 1, -2, 0, 1, 1, -1, -1], ctildes: [0.0033617121933651462, -0.19539766913162082, -0.053794882910651542, 0.15350801077347787, 0.035302969908206833, -0.06977239566038175, -0.052114026813968969, 0.055809176207667496, 0.0016808560966825765, -0.097698834565810411, 0.0075651004045397784, 0.055831027009262353, 0.14264654804372812, 0.11848184594652245, -0.058235209379423301, -0.048370011058670559, -0.082357022912017352, -0.06840552565130853, 0.050433170717286403, 0.041889658358142942]}
    - {mu0: 0, rank: 4, ndensity: 2, num_ms_combs: 5, mus: [0, 0, 0, 0], ns: [1, 1, 2, 2], ls: [1, 2, 0, 1], ms_combs: [0, 0, 0, 0, 0, 1, 0, -1, 1, -2, 0, 1, 1, -1, 0, 0, 1, 0, 0, -1], ctildes: [0.015031740984559065, -0.022179646183549593, -0.026035739111471723, 0.038416274083809043, 0.036820095357850947, -0.0543288158251648, -0.026035739111471723, 0.038416274083809043, 0.015031740984559063, -0.022179646183549589]}
    - {mu0: 0, rank: 4, ndensity: 2, num_ms_combs: 19, mus: [0, 0, 0, 0], ns: [1, 1, 2, 2], ls: [1, 2, 1, 2], ms_combs: [0, 0, 0, 0, 0, 0, 1, -1, 0, 1, -1, 0, 0, 1, 0, -1, 0, 1, 1, -2, 0, 2, -1, -1, 0, 2, 0, -2, 1, -2, -1, 2, 1, -2, 0, 1, 1, -2, 1, 0, 1, -1, -1, 1, 1, -1, 0, 0, 1, -1, 1, -1, 1, 0, -1, 0, 1, 0, 0, -1, 1, 0, 1, -2, 1, 1, -1, -1, 1, 1, 0, -2, 1, 2, -1, -2], ctildes: [0.015180834628211588, 0.04072000808654825, 0.018876487096858421, 0.02540926923456989, -0.0464066258074773, -0.078836938940329684, -0.014467136261019628, -0.050593536686301677, 0.0070656769551751125, 0.022876928187790344, 0.06036911543388393, 0.10799360073727579, -0.033216462725191014, -0.041945901774082812, 0.023224086547835338, 0.0095930396654743573, 0.0070656769551751125, 0.022876928187790344, -0.038933495538569771, -0.075558135103875643, -0.028220274636513165, -0.025769470719778576, 0.018876487096858421, 0.02540926923456989, 0.047683598986210635, 0.092539438460384482, 0.01732192972978747, 0.011099422287287983, -0.046406625807477293, -0.078836938940329671, -0.038933495538569771, -0.075558135103875643, 0.0094709481723417692, 0.034417105631997423, 0.06036911543388393, 0.10799360073727579, -0.052158359069874566, -0.11078011303807767]}
    - {mu0: 0, rank: 4, ndensity: 2, num_ms_combs: 3, mus: [0, 0, 0, 0], ns: [1, 1, 2, 2], ls: [2, 2, 0, 0], ms_combs: [0, 0, 0, 0, 1, -1, 0, 0, 2, -2, 0, 0], ctildes: [0.051500491151664739, -0.062967591245397636, -0.10300098230332949, 0.12593518249079527, 0.10300098230332952, -0.1259351824907953]}
    - {mu0: 0, rank: 4, ndensity: 2, num_ms_combs: 8, mus: [0, 0, 0, 0], ns: [1, 1, 2, 2], ls: [2, 2, 0, 2], ms_combs: [-2, 1, 0, 1, -2, 2, 0, 0, -1, 1, 0, 0, -1, 2, 0, -1, 0, 0, 0, 0, 0, 1, 0, -1, 0, 2, 0, -2, 1, 1, 0, -2], ctildes: [-0.084391313691850517, -0.065080935673935483, 0.06890521908939512, 0.053138361461345582, 0.03445260954469756, 0.026569180730672791, -0.084391313691850517, -0.065080935673935483, -0.03445260954469756, -0.026569180730672791, 0.06890521908939512, 0.053138361461345582, 0.13781043817879032, 0.10627672292269123, -0.084391313691850517, -0.065080935673935483]}
    - {mu0: 0, rank: 4, ndensity: 2, num_ms_combs: 11, mus: [0, 0, 0, 0], ns: [1, 1, 2, 2], ls: [2, 2, 1, 1], ms_combs: [-2, 1, 0, 1, -2, 2, -1, 1, -2, 2, 0, 0, -1, 1, -1, 1, -1, 1, 0, 0, -1, 2, -1, 0, 0, 0, -1, 1, 0, 0, 0, 0, 0, 1, -1, 0, 0, 2, -1, -1, 1, 1, -1, -1], ctildes: [-0.18163464291625298, 0.16419233980324816, 0.13972344924323038, -0.089127041266617357, 0.058573363082864358, -0.071537996260453943, -0.011288361538750791, -0.026974475627145285, 0.069861724621615176, -0.044563520633308672, -0.18163464291625298, 0.16419233980324816, -0.015761667181371203, 0.032837490629199752, -0.056336710261554179, 0.041632013132281438, 0.14830406491914896, -0.1340624840638755, 0.2097336199637205, -0.18959298316855971, -0.12843508770447959, 0.11610151689376265]}
    - {mu0: 0, rank: 4, ndensity: 2, num_ms_combs: 21, mus: [0, 0, 0, 0], ns: [1, 1, 2, 2], ls: [2, 2, 2, 2], ms_combs: [-2, 1, -1, 2, -2, 1, 0, 1, -2, 2, -2, 2, -2, 2, -1, 1, -2, 2, 0, 0, -1, 1, -2, 2, -1, 1, -1, 1, -1, 1, 0, 0, -1, 2, -2, 1, -1, 2, -1, 0, 0, 0, -2, 2, 0, 0, -1, 1, 0, 0, 0, 0, 0, 1, -2, 1, 0, 1, -1, 0, 0, 2, -2, 0, 0, 2, -1, -1, 1, 1, -2, 0, 1, 1, -1, -1, 1, 2, -2, -1, 2, 2, -2, -2], ctildes: [0.038156805813904508, 0.23920417603675878, 0.01010955490033434, -0.056137567250052665, -0.10842472026892096, -0.029455003421468777, 0.070267914455016428, -0.20974917261528994, -0.039261165732920274, 0.12779265216827909, 0.070267914455016428, -0.20974917261528994, -0.1208063457851571, 0.039299194160433579, 0.02687954021668406, -0.059038454586376674, 0.038156805813904508, 0.23920417603675878, 0.01010955490033434, -0.056137567250052665, -0.039261165732920274, 0.12779265216827909, 0.02687954021668406, -0.059038454586376674, -0.042836194278824444, -0.032787696073605696, 0.020219109800668687, -0.1122751345001053, 0.11758569668192966, 0.2492276934671761, -0.092822445649457283, -0.38673608863098119, -0.020219109800668659, 0.11227513450010541, -0.020219109800668676, 0.11227513450010536, -0.050538431330140687, -0.17044997845485632, 0.12584011369275377, 0.20339156174590781, -0.062920056846376887, -0.10169578087295392]}
    - {mu0: 0, rank: 4, ndensity: 2, num_ms_combs: 1, mus: [0, 0, 0, 0], ns: [1, 1, 2, 3], ls: [0, 0, 0, 0], ms_combs: [0, 0, 0, 0], ctildes: [0.035301215042073758, 0.17751924511612527]}
